tree
version=v4
num_class=1
num_tree_per_iteration=1
label_index=0
max_feature_idx=5
objective=regression
feature_names=surface_type liquid_type diameter height fall_point_type time
feature_infos=[0:8] none [18:25] [20:40] [0:9] [0.018200000000000001:0.071999999999999995]
tree_sizes=2571 2495 2673 2401 2676 2493 2585 2580 2582 2489 2586 2578 2582 2591 2587 2495 2588 2408 2591 2685 2689 2684 2500 2684 2596 2596 2676 2509 2686 2684 2406 2678 2592 2594 2688 2408 2506 2680 2685 2583 2685 2689 2587 2768 2596 2486 2778 2586 2773 2861 2683 2416 2418 2596 2502 2599 2768 2579 2585 2606 2589 2583 2409 2607 2491 2587 2677 2588 2581 2414 2510 2687 2508 2587 2686 2867 2690 2592 2674 2584 2676 2677 2593 2777 2769 2781 2669 2687 2581 2595 2595 2506 2766 2604 2775 2584 2674 2590 2691 2596

Tree=0
num_leaves=27
num_cat=0
split_feature=2 2 0 3 3 4 4 4 5 4 5 0 5 5 4 3 4 5 0 5 5 5 5 5 5 5
split_gain=3.5257e-09 5.76716e-10 5.33757e-10 6.78479e-10 3.41938e-10 1.586e-10 8.98345e-10 8.93234e-11 5.25654e-11 4.52954e-11 4.25866e-11 3.00142e-11 2.89034e-11 2.20809e-11 1.73057e-11 1.42492e-11 1.0853e-11 9.33628e-12 6.41309e-12 5.11902e-12 2.83949e-12 2.53618e-12 2.08732e-12 1.7221e-12 8.22369e-13 2.16462e-14
threshold=19.000000000000004 22.500000000000004 5.5000000000000009 25.000000000000004 35.000000000000007 3.5000000000000004 2.5000000000000004 2.5000000000000004 0.022700000000000001 1.5000000000000002 0.021100000000000004 3.5000000000000004 0.024700000000000003 0.025900000000000003 5.5000000000000009 35.000000000000007 6.5000000000000009 0.022300000000000004 1.5000000000000002 0.025900000000000003 0.025700000000000004 0.021100000000000004 0.025100000000000004 0.021700000000000004 0.025300000000000003 0.019300000000000001
decision_type=2 2 2 2 2 2 2 2 2 2 2 2 2 2 2 2 2 2 2 2 2 2 2 2 2 2
left_child=2 4 3 7 12 6 9 13 21 23 25 17 -2 -1 20 -12 24 -6 -18 -16 -14 -7 -17 -5 -10 -3
right_child=1 10 -4 5 11 8 -8 -9 16 -11 15 -13 14 -15 19 22 18 -19 -20 -21 -22 -23 -24 -25 -26 -27
leaf_value=1.0097600366609029e-05 9.7837374471804147e-06 9.7753785460141136e-06 9.9350708402638805e-06 1.0535131300406611e-05 1.0220371749507651e-05 1.0528004751757088e-05 9.8914250655198788e-06 9.9590162884575982e-06 1.0450658449830885e-05 1.0387241016061337e-05 9.6044355429250865e-06 1.0048038912147833e-05 9.9066765952555247e-06 1.0240958396866966e-05 9.8112241022370453e-06 9.7023310958513614e-06 1.0367721774253278e-05 1.0129492593211913e-05 1.0432578800611333e-05 9.879441808080839e-06 9.9570279416282724e-06 1.0572682122314131e-05 9.6641853213669298e-06 1.0571250857238949e-05 1.0476573717525055e-05 9.7709823006315671e-06
leaf_weight=21 36 24 38 33 26 24 35 37 24 25 35 27 21 22 22 32 30 20 31 22 24 27 26 22 25 21
leaf_count=21 36 24 38 33 26 24 35 37 24 25 35 27 21 22 22 32 30 20 31 22 24 27 26 22 25 21
internal_value=1.00884e-05 9.8504e-06 1.02913e-05 1.03293e-05 9.95977e-06 1.04037e-05 1.0314e-05 1.00729e-05 1.04677e-05 1.04988e-05 9.69347e-06 1.01317e-05 9.85934e-06 1.01709e-05 9.88993e-06 9.65482e-06 1.04288e-05 1.01809e-05 1.04007e-05 9.84533e-06 9.93353e-06 1.05517e-05 9.68523e-06 1.05496e-05 1.04639e-05 9.77333e-06
internal_weight=0 336 394 356 198 276 115 80 161 80 138 73 125 43 89 93 110 46 61 44 45 51 58 55 49 45
internal_count=730 336 394 356 198 276 115 80 161 80 138 73 125 43 89 93 110 46 61 44 45 51 58 55 49 45
is_linear=0
shrinkage=1


Tree=1
num_leaves=26
num_cat=0
split_feature=2 2 0 3 3 0 0 4 5 4 5 3 4 5 5 5 4 3 5 4 5 5 5 5 5
split_gain=2.85581e-09 4.6714e-10 4.32343e-10 5.49568e-10 2.7697e-10 1.44795e-10 3.68991e-10 7.2352e-11 3.45882e-11 2.5926e-11 2.34117e-11 2.05963e-11 2.90948e-11 1.78856e-11 1.46687e-11 1.65174e-11 1.40176e-11 1.26189e-11 9.67423e-12 6.35979e-12 4.14641e-12 2.61194e-12 2.30085e-12 1.97368e-12 8.5426e-14
threshold=19.000000000000004 22.500000000000004 5.5000000000000009 25.000000000000004 35.000000000000007 2.5000000000000004 3.5000000000000004 2.5000000000000004 0.020700000000000003 5.5000000000000009 0.024700000000000003 35.000000000000007 6.5000000000000009 0.025900000000000003 0.023900000000000005 0.020100000000000003 5.5000000000000009 35.000000000000007 0.020100000000000003 3.5000000000000004 0.025900000000000003 0.024300000000000006 0.025900000000000003 0.025100000000000004 0.019100000000000002
decision_type=2 2 2 2 2 2 2 2 2 2 2 2 2 2 2 2 2 2 2 2 2 2 2 2 2
left_child=2 4 3 7 10 11 21 13 24 -6 -2 12 -5 -1 15 -8 22 -10 -13 -20 -18 -7 -12 -19 -3
right_child=1 8 -4 5 9 6 14 -9 17 -11 16 18 -14 -15 -16 -17 20 23 19 -21 -22 -23 -24 -25 -26
leaf_value=8.3024862159878213e-09 -2.7417413832608873e-07 -2.8167694608782769e-07 -1.3797409351175368e-07 3.5746170274128295e-07 9.621636368107926e-08 -1.0799810406356499e-08 3.077590636599953e-07 -1.1642318609473035e-07 -4.3554585317906456e-07 -2.3073522983046201e-08 -1.6147516124993159e-07 3.1241037818506899e-07 2.2093583614453871e-07 1.373247082754729e-07 2.7699083420884566e-07 4.2919907154252246e-07 -2.4943615657817148e-07 -3.4581922234891055e-07 3.6032199484627482e-07 4.1743093077410525e-07 -1.8804022064697082e-07 -6.0212322523511837e-08 -1.1624014487923971e-07 -3.8177105702393766e-07 -2.7243432668910829e-07
leaf_weight=21 36 20 38 37 38 23 21 37 35 35 23 21 27 22 25 24 22 37 39 39 22 20 22 26 20
leaf_count=21 36 20 38 37 38 23 21 37 35 35 23 21 27 22 25 24 22 37 39 39 22 20 22 26 20
internal_value=0 -2.14182e-07 1.82652e-07 2.16876e-07 -1.15744e-07 2.83769e-07 1.96777e-07 -1.3902e-08 -3.55418e-07 3.90226e-08 -2.06128e-07 3.44076e-07 2.99865e-07 7.43139e-08 3.38407e-07 3.72527e-07 -1.78603e-07 -3.87403e-07 3.72656e-07 3.88876e-07 -2.18738e-07 -3.37824e-08 -1.3936e-07 -3.60656e-07 -2.77056e-07
internal_weight=0 336 394 356 198 276 113 80 138 73 125 163 64 43 70 45 89 98 99 78 44 43 45 63 40
internal_count=730 336 394 356 198 276 113 80 138 73 125 163 64 43 70 45 89 98 99 78 44 43 45 63 40
is_linear=0
shrinkage=0.1


Tree=2
num_leaves=28
num_cat=0
split_feature=2 2 0 3 3 4 4 4 3 4 5 4 0 5 5 4 3 5 5 5 0 5 5 5 0 5 0
split_gain=2.31321e-09 3.78383e-10 3.50198e-10 4.4515e-10 2.24346e-10 1.19533e-10 6.86606e-10 5.86051e-11 3.89085e-11 3.74208e-11 2.80407e-11 2.73474e-11 2.17977e-11 1.89635e-11 1.47103e-11 1.13543e-11 9.32336e-12 7.69019e-12 7.59981e-12 3.35859e-12 2.98089e-12 2.89741e-12 2.5349e-12 1.89833e-12 1.47906e-12 2.32696e-13 2.15837e-14
threshold=19.000000000000004 22.500000000000004 5.5000000000000009 25.000000000000004 35.000000000000007 3.5000000000000004 2.5000000000000004 2.5000000000000004 35.000000000000007 1.5000000000000002 0.021100000000000004 6.5000000000000009 3.5000000000000004 0.024700000000000003 0.026100000000000002 5.5000000000000009 35.000000000000007 0.022300000000000004 0.023100000000000002 0.025900000000000003 1.5000000000000002 0.021100000000000004 0.021700000000000004 0.025700000000000004 6.5000000000000009 0.025500000000000005 3.5000000000000004
decision_type=2 2 2 2 2 2 2 2 2 2 2 2 2 2 2 2 2 2 2 2 2 2 2 2 2 2 2
left_child=2 4 3 7 13 6 9 14 11 22 26 25 17 -2 -1 23 -12 -6 21 -17 -13 -10 -5 -15 -18 -7 -3
right_child=1 10 -4 5 12 8 -8 -9 18 -11 16 20 -14 15 -16 19 24 -19 -20 -21 -22 -23 -24 -25 -26 -27 -28
leaf_value=1.2340918161775653e-08 -2.4675673399896268e-07 -2.5703282699396368e-07 -1.2417668184944455e-07 3.6772599383821771e-07 1.1284554889156285e-07 3.2656417279971115e-07 -1.9189121303497816e-07 -1.0478086757167468e-07 3.5791974539733928e-07 2.3770104144205107e-07 -3.9199128228314559e-07 1.8223817205993826e-07 -3.6204542567211913e-08 -1.4738139194984496e-07 1.2960525168637106e-07 -2.2449253678628751e-07 -3.4435224034286179e-07 3.0366102512502382e-08 3.1165607992988954e-07 -1.6923619754875704e-07 2.3558042954618944e-07 4.045358021661135e-07 4.1154813433505215e-07 -1.0621172729467314e-07 -3.122418263501459e-07 3.121501343966451e-07 -2.5262541385018268e-07
leaf_weight=23 36 25 38 33 26 24 35 37 24 25 35 22 27 21 20 22 26 20 20 22 20 30 22 24 32 21 20
leaf_count=23 36 25 38 33 26 24 35 37 24 25 35 22 27 21 20 22 26 20 20 22 20 30 22 24 32 21 20
internal_value=0 -1.92763e-07 1.64387e-07 1.95189e-07 -1.0417e-07 2.55392e-07 1.77525e-07 -1.25118e-08 3.11011e-07 3.39144e-07 -3.19876e-07 2.65673e-07 3.51203e-08 -1.85515e-07 6.68825e-08 -1.60743e-07 -3.51232e-07 7.69849e-08 3.64314e-07 -1.96864e-07 2.07639e-07 3.83818e-07 3.85255e-07 -1.25424e-07 -3.26636e-07 3.19838e-07 -2.55074e-07
internal_weight=0 336 394 356 198 276 115 80 161 80 138 87 73 125 43 89 93 46 74 44 42 54 55 45 58 45 45
internal_count=730 336 394 356 198 276 115 80 161 80 138 87 73 125 43 89 93 46 74 44 42 54 55 45 58 45 45
is_linear=0
shrinkage=0.1


Tree=3
num_leaves=25
num_cat=0
split_feature=2 2 0 3 3 0 0 4 5 4 3 4 4 5 5 5 5 3 5 5 4 5 5 5
split_gain=1.8737e-09 3.0649e-10 2.8366e-10 3.60572e-10 1.8172e-10 1.08188e-10 2.67626e-10 4.74701e-11 2.31186e-11 1.89666e-11 1.58226e-11 1.88918e-11 1.58022e-11 1.33808e-11 1.19494e-11 1.12073e-11 1.10766e-11 8.177e-12 7.5066e-12 5.9789e-12 2.78931e-12 1.84161e-12 1.55648e-12 7.14125e-14
threshold=19.000000000000004 22.500000000000004 5.5000000000000009 25.000000000000004 35.000000000000007 2.5000000000000004 3.5000000000000004 2.5000000000000004 0.020700000000000003 5.5000000000000009 35.000000000000007 6.5000000000000009 5.5000000000000009 0.025500000000000005 0.025900000000000003 0.023900000000000005 0.020100000000000003 35.000000000000007 0.025100000000000004 0.020100000000000003 3.5000000000000004 0.024300000000000006 0.025100000000000004 0.019100000000000002
decision_type=2 2 2 2 2 2 2 2 2 2 2 2 2 2 2 2 2 2 2 2 2 2 2 2
left_child=2 4 3 7 12 10 21 14 23 -6 11 -5 18 -14 -1 16 -8 -10 -2 -12 -21 -7 -19 -3
right_child=1 8 -4 5 9 6 15 -9 17 -11 19 -13 13 -15 -16 -17 -18 22 -20 20 -22 -23 -24 -25
leaf_value=6.2381466087962119e-09 -1.7073922014821653e-07 -2.2804836817158504e-07 -1.1175900921425877e-07 2.8964346324141234e-07 8.0527125739512207e-08 -2.2398545673280276e-08 2.5206017891746125e-07 -9.4302780445793139e-08 -3.52792137943782e-07 -2.1503584225003792e-08 2.5967045893421097e-07 1.7963061762000307e-07 -2.5057103130166071e-07 -1.5829391744856283e-07 1.1169775756446721e-07 2.2159189120429801e-07 3.5150784564545273e-07 -2.7933149278790037e-07 -1.0056112574017918e-07 3.0087345317625501e-07 3.3869425368930725e-07 -6.3889617649692811e-08 -3.1125826511085438e-07 -2.1959777939173365e-07
leaf_weight=21 27 20 38 37 38 23 21 37 35 35 21 27 30 33 22 25 24 37 35 39 39 20 26 20
leaf_count=21 27 20 38 37 38 23 21 37 35 35 21 27 30 33 22 25 24 37 35 39 39 20 26 20
internal_value=0 -1.73487e-07 1.47948e-07 1.7567e-07 -9.37526e-08 2.29853e-07 1.54657e-07 -1.12606e-08 -2.87889e-07 3.16083e-08 2.81982e-07 2.43232e-07 -1.66963e-07 -2.02235e-07 6.01942e-08 2.75275e-07 3.05099e-07 -3.14038e-07 -1.31123e-07 3.07033e-07 3.19784e-07 -4.16967e-08 -2.92508e-07 -2.23823e-07
internal_weight=0 336 394 356 198 276 113 80 138 73 163 64 125 63 43 70 45 98 62 99 78 43 63 40
internal_count=730 336 394 356 198 276 113 80 138 73 163 64 125 63 43 70 45 98 62 99 78 43 63 40
is_linear=0
shrinkage=0.1


Tree=4
num_leaves=28
num_cat=0
split_feature=2 2 0 3 3 4 4 0 4 3 5 4 0 5 5 4 3 5 5 5 0 5 5 5 5 5 5
split_gain=1.5177e-09 2.48257e-10 2.29765e-10 2.92063e-10 1.47193e-10 9.14811e-11 3.5352e-10 3.21617e-10 3.84508e-11 2.76821e-11 1.87261e-11 1.77354e-11 1.5824e-11 1.29082e-11 9.84029e-12 7.42611e-12 6.62337e-12 6.32823e-12 4.13008e-12 3.19215e-12 2.73437e-12 2.36094e-12 2.23908e-12 1.29232e-12 1.26075e-12 1.83068e-13 5.7844e-14
threshold=19.000000000000004 22.500000000000004 5.5000000000000009 25.000000000000004 35.000000000000007 1.5000000000000002 3.5000000000000004 2.5000000000000004 2.5000000000000004 35.000000000000007 0.020700000000000003 6.5000000000000009 3.5000000000000004 0.024700000000000003 0.026100000000000002 5.5000000000000009 35.000000000000007 0.022300000000000004 0.023100000000000002 0.021700000000000004 1.5000000000000002 0.021100000000000004 0.025900000000000003 0.025900000000000003 0.025100000000000004 0.025500000000000005 0.019100000000000002
decision_type=2 2 2 2 2 2 2 2 2 2 2 2 2 2 2 2 2 2 2 2 2 2 2 2 2 2 2
left_child=2 4 3 8 13 19 7 -7 14 11 26 25 17 -2 -1 23 -12 -6 21 -5 -13 -11 -17 -15 -18 -8 -3
right_child=1 10 -4 5 12 6 9 -9 -10 18 16 20 -14 15 -16 22 24 -19 -20 -21 -22 -23 -24 -25 -26 -27 -28
leaf_value=9.5659732116236354e-09 -2.0079378815454322e-07 -2.0524353260498175e-07 -1.0058311511404315e-07 3.026022871684594e-07 9.6647689837517157e-08 2.1847473387229651e-07 2.6670001223768244e-07 -2.4560306517429352e-07 -8.4872501867346582e-08 2.9131687047841603e-07 -3.1751292811220214e-07 1.4605129453312574e-07 -3.2323188135939694e-08 -1.178401713213648e-07 1.0547495627122317e-07 -1.8160003492084798e-07 -2.5139834240296815e-07 2.1827548106756469e-08 2.6149798372898657e-07 3.5177849171800931e-07 1.9714023949291007e-07 3.3339660641710605e-07 -1.3648318627187709e-07 -8.3938845498530348e-08 -2.8013242329577158e-07 2.5391511068543572e-07 -1.9763800537475621e-07
leaf_weight=23 36 20 38 33 26 28 24 32 37 24 35 22 27 23 20 22 37 20 20 22 20 30 22 22 26 21 20
leaf_count=23 36 20 38 33 26 28 24 32 37 24 35 22 27 23 20 22 37 20 20 22 20 30 22 22 26 21 20
internal_value=0 -1.56138e-07 1.33154e-07 1.58103e-07 -8.43774e-08 2.06867e-07 1.78147e-07 -2.90334e-08 -1.01346e-08 2.55357e-07 -2.591e-07 2.17114e-07 2.84475e-08 -1.50267e-07 5.41748e-08 -1.29829e-07 -2.82634e-07 6.41172e-08 3.00317e-07 3.22273e-07 1.70379e-07 3.14695e-07 -1.59042e-07 -1.01266e-07 -2.63257e-07 2.60734e-07 -2.01441e-07
internal_weight=0 336 394 356 198 276 221 60 80 161 138 87 73 125 43 89 98 46 74 55 42 54 44 45 63 45 40
internal_count=730 336 394 356 198 276 221 60 80 161 138 87 73 125 43 89 98 46 74 55 42 54 44 45 63 45 40
is_linear=0
shrinkage=0.1


Tree=5
num_leaves=26
num_cat=0
split_feature=2 2 0 3 3 4 4 0 4 3 5 5 4 4 4 5 3 5 0 5 0 5 5 5 5
split_gain=1.22933e-09 2.01088e-10 1.86109e-10 2.36571e-10 1.19226e-10 7.40997e-11 2.86351e-10 2.60509e-10 3.17235e-11 2.24225e-11 2.15919e-11 1.51681e-11 1.43657e-11 1.38861e-11 1.11348e-11 9.76413e-12 5.36493e-12 4.74687e-12 3.44961e-12 2.58564e-12 2.21484e-12 1.99531e-12 1.02121e-12 1.48285e-13 4.68536e-14
threshold=19.000000000000004 22.500000000000004 5.5000000000000009 25.000000000000004 35.000000000000007 1.5000000000000002 3.5000000000000004 2.5000000000000004 6.5000000000000009 35.000000000000007 0.025700000000000004 0.020700000000000003 6.5000000000000009 5.5000000000000009 5.5000000000000009 0.025500000000000005 35.000000000000007 0.025100000000000004 3.5000000000000004 0.021700000000000004 1.5000000000000002 0.021100000000000004 0.025100000000000004 0.025500000000000005 0.019100000000000002
decision_type=2 2 2 2 2 2 2 2 2 2 2 2 2 2 2 2 2 2 2 2 2 2 2 2 2
left_child=2 4 3 8 14 19 7 -7 10 12 -1 24 23 -6 17 -16 -13 -2 21 -5 -14 -11 -18 -8 -3
right_child=1 11 -4 5 13 6 9 -9 -10 18 -12 16 20 -15 15 -17 22 -19 -20 -21 -22 -23 -24 -25 -26
leaf_value=-5.2929083524521136e-08 -1.3665827635931138e-07 -1.8471917655915605e-07 -9.0524802937907401e-08 2.723420638259003e-07 6.7460056993172059e-08 1.9662725857675208e-07 2.4003001234026066e-07 -2.2104276311551985e-07 -1.146719321741871e-07 2.5932849785888154e-07 7.3419255208762032e-08 -2.8576164822879946e-07 1.3144616430467564e-07 -1.984239539279794e-08 -2.0613832589333468e-07 -1.2731231214846766e-07 -2.2625851479952454e-07 -8.0851935584697861e-08 2.3480803179154464e-07 3.1660063913560326e-07 1.7742621253091783e-07 2.9875931445668825e-07 -2.5211919067330134e-07 2.2852360318990707e-07 -1.7787420802051202e-07
leaf_weight=21 27 20 38 33 38 28 24 32 21 21 38 35 22 35 30 33 37 35 20 22 20 33 26 21 20
leaf_count=21 27 20 38 33 38 28 24 32 21 21 38 35 22 35 30 33 37 35 20 22 20 33 26 21 20
internal_value=0 -1.40525e-07 1.19838e-07 1.42293e-07 -7.59396e-08 1.86181e-07 1.60332e-07 -2.61301e-08 -9.12112e-09 2.29821e-07 2.84478e-08 -2.3319e-07 1.95403e-07 2.56027e-08 -1.3524e-07 -1.64849e-07 -2.54371e-07 -1.05155e-07 2.70285e-07 2.90045e-07 1.53341e-07 2.83425e-07 -2.36931e-07 2.3466e-07 -1.81297e-07
internal_weight=0 336 394 356 198 276 221 60 80 161 59 138 87 73 125 63 98 62 74 55 42 54 63 45 40
internal_count=730 336 394 356 198 276 221 60 80 161 59 138 87 73 125 63 98 62 74 55 42 54 63 45 40
is_linear=0
shrinkage=0.1


Tree=6
num_leaves=27
num_cat=0
split_feature=2 2 0 3 3 4 4 0 4 3 5 4 0 4 5 5 5 3 5 5 0 0 5 0 5 5
split_gain=9.95761e-10 1.62882e-10 1.50749e-10 1.91623e-10 9.65734e-11 6.00207e-11 2.31944e-10 2.11013e-10 2.80358e-11 1.81623e-11 1.22862e-11 1.16362e-11 1.14819e-11 9.01916e-12 7.90895e-12 6.24909e-12 5.20284e-12 4.3456e-12 3.84496e-12 3.46303e-12 2.41785e-12 1.79402e-12 1.70445e-12 1.01868e-12 1.20111e-13 3.79514e-14
threshold=19.000000000000004 22.500000000000004 5.5000000000000009 25.000000000000004 35.000000000000007 1.5000000000000002 3.5000000000000004 2.5000000000000004 2.5000000000000004 35.000000000000007 0.020700000000000003 6.5000000000000009 3.5000000000000004 5.5000000000000009 0.025500000000000005 0.026100000000000002 0.022300000000000004 35.000000000000007 0.025100000000000004 0.023100000000000002 3.5000000000000004 1.5000000000000002 0.021100000000000004 6.5000000000000009 0.025500000000000005 0.019100000000000002
decision_type=2 2 2 2 2 2 2 2 2 2 2 2 2 2 2 2 2 2 2 2 2 2 2 2 2 2
left_child=2 4 3 8 13 20 7 -7 15 11 25 24 16 18 -15 -1 -6 -12 -2 22 -5 -13 -11 -19 -8 -3
right_child=1 10 -4 5 12 6 9 -9 -10 19 17 21 -14 14 -16 -17 -18 23 -20 -21 -22 -23 -24 -25 -26 -27
leaf_value=1.1155579957373804e-08 -1.2299244771283056e-07 -1.6624725674319051e-07 -8.1472324764993241e-08 2.7751891794276377e-07 8.2923142048667409e-08 1.7696453341439371e-07 2.1602701446947019e-07 -1.9893848204333154e-07 -7.2027285286852739e-08 2.3655883900630671e-07 -2.5718548288620829e-07 1.1830155234416784e-07 -2.8723341861370536e-08 -1.8552449129553379e-07 -1.1458108185086695e-07 8.7585535517575864e-08 1.5081347748413523e-08 -2.2615748995972796e-07 -7.2766742188637833e-08 2.0771055233126388e-07 2.3436230852288042e-07 1.5968359434737067e-07 2.7231272137366134e-07 -2.007223535827052e-07 2.0567123707830129e-07 -1.6008678812795554e-07
leaf_weight=23 27 20 38 34 26 28 24 32 37 24 35 22 27 30 33 20 20 31 35 20 21 20 30 32 21 20
leaf_count=23 27 20 38 34 26 28 24 32 37 24 35 22 27 30 33 20 20 31 35 20 21 20 30 32 21 20
internal_value=0 -1.26472e-07 1.07854e-07 1.28063e-07 -6.83457e-08 1.67563e-07 1.44299e-07 -2.35171e-08 -8.20901e-09 2.06839e-07 -2.09871e-07 1.75863e-07 2.30424e-08 -1.21716e-07 -1.48364e-07 4.67044e-08 5.34267e-08 -2.28934e-07 -9.46392e-08 2.43257e-07 2.61041e-07 1.38007e-07 2.56422e-07 -2.13238e-07 2.11194e-07 -1.63167e-07
internal_weight=0 336 394 356 198 276 221 60 80 161 138 87 73 125 63 43 46 98 62 74 55 42 54 63 45 40
internal_count=730 336 394 356 198 276 221 60 80 161 138 87 73 125 63 43 46 98 62 74 55 42 54 63 45 40
is_linear=0
shrinkage=0.1


Tree=7
num_leaves=27
num_cat=0
split_feature=2 2 0 3 3 4 4 0 4 3 4 5 4 5 5 4 3 0 5 5 0 5 4 0 5 0
split_gain=8.06566e-10 1.31934e-10 1.22106e-10 1.55214e-10 7.82245e-11 4.86168e-11 1.87875e-10 1.7092e-10 2.2709e-11 1.47114e-11 1.01752e-11 9.98067e-12 9.42532e-12 7.39261e-12 5.06176e-12 3.88385e-12 3.19928e-12 2.81315e-12 1.97911e-12 1.52371e-12 1.45316e-12 1.23624e-12 1.19514e-12 1.12121e-12 9.72899e-14 7.40933e-14
threshold=19.000000000000004 22.500000000000004 5.5000000000000009 25.000000000000004 35.000000000000007 1.5000000000000002 3.5000000000000004 2.5000000000000004 2.5000000000000004 35.000000000000007 5.5000000000000009 0.021100000000000004 6.5000000000000009 0.024700000000000003 0.026100000000000002 5.5000000000000009 35.000000000000007 3.5000000000000004 0.021700000000000004 0.021100000000000004 1.5000000000000002 0.026100000000000002 4.5000000000000009 6.5000000000000009 0.025500000000000005 3.5000000000000004
decision_type=2 2 2 2 2 2 2 2 2 2 2 2 2 2 2 2 2 2 2 2 2 2 2 2 2 2
left_child=2 4 3 8 13 18 7 -7 14 12 -6 25 24 -2 -1 22 -13 19 -5 -11 -14 -17 -15 -18 -8 -3
right_child=1 11 -4 5 10 6 9 -9 -10 17 -12 16 20 15 -16 21 23 -19 -20 -21 -22 -23 -24 -25 -26 -27
leaf_value=1.0040023753439843e-08 -1.4778203192536113e-07 -1.5385185201921559e-07 -7.3325082931767989e-08 2.1944840785760211e-07 5.6568735800884667e-08 1.5926807880159038e-07 1.9442431048825407e-07 -1.7904463369688984e-07 -6.4824557724121499e-08 2.0973976516204729e-07 -1.8163522744276048e-08 -2.3146692910813725e-07 1.0647139276898088e-07 -8.7997754917523717e-08 7.8826979041934932e-08 -1.3050536639506542e-07 -2.0860745997616996e-07 1.8689333273869126e-07 2.5816951589066862e-07 2.4419704585177512e-07 1.4371523292311396e-07 -9.68420891211963e-08 -5.5201034712126787e-08 -1.8065011744283766e-07 1.8510411716003244e-07 -1.4568582457741288e-07
leaf_weight=23 36 25 38 33 38 28 24 32 37 21 35 35 22 25 20 24 26 20 22 33 20 20 20 32 21 20
leaf_count=23 36 25 38 33 38 28 24 32 37 21 35 35 22 25 20 24 26 20 22 33 20 20 20 32 21 20
internal_value=0 -1.13825e-07 9.70689e-08 1.15257e-07 -6.15111e-08 1.50806e-07 1.29869e-07 -2.11654e-08 -7.38811e-09 1.86155e-07 2.07382e-08 -1.88884e-07 1.58276e-07 -1.09545e-07 4.2034e-08 -9.40779e-08 -2.07591e-07 2.18931e-07 2.34937e-07 2.30797e-07 1.24207e-07 -1.15204e-07 -7.34214e-08 -1.93183e-07 1.90075e-07 -1.50223e-07
internal_weight=0 336 394 356 198 276 221 60 80 161 73 138 87 125 43 89 93 74 55 54 42 44 45 58 45 45
internal_count=730 336 394 356 198 276 221 60 80 161 73 138 87 125 43 89 93 74 55 54 42 44 45 58 45 45
is_linear=0
shrinkage=0.1


Tree=8
num_leaves=27
num_cat=0
split_feature=2 2 0 3 3 4 4 4 5 3 5 0 0 4 5 0 5 5 5 4 5 5 0 3 5 5
split_gain=6.53319e-10 1.06867e-10 9.89062e-11 1.25724e-10 6.33618e-11 4.45658e-11 2.97946e-10 1.95549e-11 1.61344e-11 1.19163e-11 8.36479e-12 8.32665e-12 8.21794e-12 7.63451e-12 6.4607e-12 8.72354e-12 4.54309e-12 4.27402e-12 2.89715e-12 2.16576e-12 2.03994e-12 1.22876e-12 1.17706e-12 1.07422e-12 7.88049e-14 3.35171e-14
threshold=19.000000000000004 22.500000000000004 5.5000000000000009 25.000000000000004 35.000000000000007 2.5000000000000004 3.5000000000000004 6.5000000000000009 0.025700000000000004 35.000000000000007 0.024500000000000004 3.5000000000000004 1.5000000000000002 6.5000000000000009 0.025500000000000005 1.5000000000000002 0.021700000000000004 0.022300000000000004 0.023100000000000002 5.5000000000000009 0.020700000000000003 0.021100000000000004 1.5000000000000002 35.000000000000007 0.025500000000000005 0.019100000000000002
decision_type=2 2 2 2 2 2 2 2 2 2 2 2 2 2 2 2 2 2 2 2 2 2 2 2 2 2
left_child=2 4 3 7 14 12 -7 8 -1 13 20 17 -5 24 15 -2 -14 -6 21 -16 25 -11 -15 -12 -8 -3
right_child=1 10 -4 5 11 6 9 -9 -10 18 23 -13 16 22 19 -17 -18 -19 -20 -21 -22 -23 -24 -25 -26 -27
leaf_value=-4.7497913158167648e-08 -8.5451884470360803e-08 -1.3468647580339166e-07 -6.5992581111425162e-08 1.5108384991435744e-07 7.1273409601574784e-08 -1.5438182604806832e-07 1.7498188193224945e-07 -8.9519555180302077e-08 6.1721663075235038e-08 1.9221455834402456e-07 -2.0863863797411102e-07 -2.5418585290913774e-08 1.9850536107566898e-07 9.5824256360091653e-08 -5.3923346485960256e-08 -1.5879896680769068e-07 2.5825122236255992e-07 9.7846456581507366e-09 1.6452541842681967e-07 -9.2112634793769155e-08 -1.651079682072604e-07 2.2257187168861494e-07 1.2934370840156363e-07 -1.8267674098145411e-07 1.6659370311615585e-07 -1.2889707733165777e-07
leaf_weight=21 34 20 38 25 26 35 24 21 38 24 34 27 35 22 27 31 20 20 20 33 34 30 20 30 21 20
leaf_count=21 34 20 38 25 26 35 24 21 38 24 34 27 35 22 27 31 20 20 20 33 34 30 20 30 21 20
internal_value=0 -1.02442e-07 8.7362e-08 1.03731e-07 -5.536e-08 1.35726e-07 1.10054e-07 -6.6493e-09 2.28469e-08 1.67539e-07 -1.69995e-07 1.86644e-08 1.98623e-07 1.42449e-07 -9.85902e-08 -1.20433e-07 2.20231e-07 4.45392e-08 1.97038e-07 -7.49275e-08 -1.47099e-07 2.0908e-07 1.11786e-07 -1.96469e-07 1.71067e-07 -1.31792e-07
internal_weight=0 336 394 356 198 276 196 80 59 161 138 73 80 87 125 65 55 46 74 60 74 54 42 64 45 40
internal_count=730 336 394 356 198 276 196 80 59 161 138 73 80 87 125 65 55 46 74 60 74 54 42 64 45 40
is_linear=0
shrinkage=0.1


Tree=9
num_leaves=26
num_cat=0
split_feature=2 2 5 0 3 4 4 3 4 0 0 0 0 4 5 4 5 5 4 4 5 0 5 3 5
split_gain=5.29188e-10 8.6562e-11 8.25076e-11 8.19587e-11 6.79722e-11 6.45759e-11 1.75992e-10 5.13231e-11 1.65686e-11 1.10747e-11 2.58209e-11 9.99359e-12 8.95546e-12 7.46311e-12 6.77548e-12 5.45374e-12 4.88541e-12 3.04601e-12 2.63565e-12 2.39537e-12 2.06216e-12 1.71188e-12 1.65235e-12 8.70117e-13 2.71489e-14
threshold=19.000000000000004 22.500000000000004 0.021700000000000004 5.5000000000000009 25.000000000000004 3.5000000000000004 1.5000000000000002 35.000000000000007 2.5000000000000004 3.5000000000000004 1.5000000000000002 1.5000000000000002 4.5000000000000009 5.5000000000000009 0.024500000000000004 5.5000000000000009 0.025500000000000005 0.026100000000000002 6.5000000000000009 3.5000000000000004 0.025100000000000004 1.0000000180025095e-35 0.020700000000000003 35.000000000000007 0.019100000000000002
decision_type=2 2 2 2 2 2 2 2 2 2 2 2 2 2 2 2 2 2 2 2 2 2 2 2 2
left_child=2 7 9 4 8 6 -6 15 17 10 19 21 18 -9 22 20 -17 -4 -13 -1 -2 -7 24 -16 -3
right_child=1 14 3 -5 5 11 -8 13 -10 -11 -12 12 -14 -15 23 16 -18 -19 -20 -21 -22 -23 -24 -25 -26
leaf_value=1.5858805187710221e-07 -8.8439986335165635e-08 -1.2121783299789967e-07 1.1411474756444121e-08 -9.5233835813413708e-08 2.0847593821765092e-07 1.255946934008989e-07 -1.8309351427584869e-07 4.7483971533704579e-08 -5.5044741532407146e-08 1.9934060836541382e-07 5.9717905263786036e-08 2.0687415371867247e-07 1.106426819577874e-07 -1.65183169910575e-08 -1.8777476431269488e-07 -1.3865885506447739e-07 -8.2901372425422703e-08 6.4772114196642864e-08 1.6345746440004373e-07 2.0590769736372752e-07 -5.165745833630402e-08 8.7824807396922705e-08 -1.4859717125278515e-07 -1.6440906487484124e-07 -1.1600736854688877e-07
leaf_weight=23 27 20 23 34 22 24 24 38 37 35 30 29 22 35 34 30 33 20 27 20 35 24 34 30 20
leaf_count=23 27 20 23 34 22 24 24 38 37 35 30 29 22 35 34 30 33 20 27 20 35 24 34 30 20
internal_value=0 -9.21981e-08 7.86258e-08 5.0505e-08 7.01682e-08 1.05588e-07 4.17883e-09 -4.9824e-08 -5.98437e-09 1.53094e-07 1.30921e-07 1.4261e-07 1.64703e-07 1.67979e-08 -1.52996e-07 -8.87312e-08 -1.09453e-07 3.62304e-08 1.85941e-07 1.80597e-07 -6.76757e-08 1.0671e-07 -1.32389e-07 -1.76822e-07 -1.18613e-07
internal_weight=0 336 394 286 252 172 46 198 80 108 73 126 78 73 138 125 63 43 56 43 62 48 74 64 40
internal_count=730 336 394 286 252 172 46 198 80 108 73 126 78 73 138 125 63 43 56 43 62 48 74 64 40
is_linear=0
shrinkage=0.1


Tree=10
num_leaves=27
num_cat=0
split_feature=2 2 5 0 3 4 4 3 4 5 0 0 0 0 4 5 5 4 4 4 0 5 4 3 5 5
split_gain=4.28642e-10 7.01152e-11 6.68311e-11 6.63866e-11 5.50575e-11 5.23064e-11 1.42554e-10 4.15717e-11 1.38242e-11 1.27738e-11 8.97049e-12 2.09149e-11 8.09481e-12 7.25392e-12 6.04512e-12 5.48814e-12 4.56574e-12 2.13487e-12 2.11361e-12 1.94025e-12 1.38662e-12 1.33841e-12 8.46988e-13 7.04795e-13 6.81303e-13 2.19906e-14
threshold=19.000000000000004 22.500000000000004 0.021700000000000004 5.5000000000000009 25.000000000000004 3.5000000000000004 1.5000000000000002 35.000000000000007 6.5000000000000009 0.026500000000000003 3.5000000000000004 1.5000000000000002 1.5000000000000002 4.5000000000000009 5.5000000000000009 0.024500000000000004 0.024700000000000003 6.5000000000000009 5.5000000000000009 3.5000000000000004 1.0000000180025095e-35 0.020700000000000003 4.5000000000000009 35.000000000000007 0.026100000000000002 0.019100000000000002
decision_type=2 2 2 2 2 2 2 2 2 2 2 2 2 2 2 2 2 2 2 2 2 2 2 2 2 2
left_child=2 7 10 4 8 6 -6 16 9 -4 11 19 20 17 -9 21 -2 -14 22 -1 -7 25 -18 -17 -20 -3
right_child=1 15 3 -5 5 12 -8 14 -10 -11 -12 -13 13 -15 -16 23 18 -19 24 -21 -22 -23 -24 -25 -26 -27
leaf_value=1.4272924614567233e-07 -1.0990807600326964e-07 -1.0909604696962561e-07 -2.188684607558123e-08 -8.5710453155777889e-08 1.8762834150203909e-07 1.1303522218971314e-07 -1.6478415834815981e-07 4.2735574330783111e-08 -7.5063122684766668e-08 7.1835271761791295e-08 1.7940654580732892e-07 5.3746115777168297e-08 1.8618673862122172e-07 9.9578415105580397e-08 -1.4866486698191954e-08 -1.689972912251559e-07 -6.4735646347457988e-08 1.4711171638895041e-07 -9.4647033203424757e-08 1.853169322885151e-07 7.9042328302951034e-08 -1.3373745070854218e-07 -3.7126059169168004e-08 -1.4796816268850914e-07 -6.9656481311852765e-08 -1.0440663004374075e-07
leaf_weight=23 36 20 33 34 22 24 24 38 21 26 35 30 29 22 35 34 25 27 24 20 24 34 20 30 20 20
leaf_count=23 36 20 33 34 22 24 24 38 21 26 35 30 29 22 35 34 25 27 24 20 24 34 20 30 20 20
internal_value=0 -8.29783e-08 7.07632e-08 4.54545e-08 6.31514e-08 9.50292e-08 3.76095e-09 -4.48416e-08 -5.38593e-09 1.94144e-08 1.37784e-07 1.17829e-07 1.28349e-07 1.48233e-07 1.51181e-08 -1.37696e-07 -7.98581e-08 1.67347e-07 -6.7703e-08 1.62537e-07 9.60388e-08 -1.1915e-07 -5.24647e-08 -1.5914e-07 -8.32877e-08 -1.06751e-07
internal_weight=0 336 394 286 252 172 46 198 80 59 108 73 126 78 73 138 125 56 89 43 48 74 45 64 44 40
internal_count=730 336 394 286 252 172 46 198 80 59 108 73 126 78 73 138 125 56 89 43 48 74 45 64 44 40
is_linear=0
shrinkage=0.1


Tree=11
num_leaves=27
num_cat=0
split_feature=2 2 5 0 3 4 4 3 4 0 0 0 0 0 5 4 5 5 5 4 4 4 0 5 3 5
split_gain=3.472e-10 5.67933e-11 5.41332e-11 5.37731e-11 4.45965e-11 4.23682e-11 1.15469e-10 3.36731e-11 1.23009e-11 7.2661e-12 1.69411e-11 6.5568e-12 5.87568e-12 5.4293e-12 4.44539e-12 3.89139e-12 3.57555e-12 3.55029e-12 1.85581e-12 1.72925e-12 1.5716e-12 1.49705e-12 1.12316e-12 1.08411e-12 5.70884e-13 1.78124e-14
threshold=19.000000000000004 22.500000000000004 0.021700000000000004 5.5000000000000009 25.000000000000004 3.5000000000000004 1.5000000000000002 35.000000000000007 2.5000000000000004 3.5000000000000004 1.5000000000000002 1.5000000000000002 4.5000000000000009 3.5000000000000004 0.024500000000000004 5.5000000000000009 0.025500000000000005 0.022300000000000004 0.025900000000000003 6.5000000000000009 3.5000000000000004 4.5000000000000009 1.0000000180025095e-35 0.020700000000000003 35.000000000000007 0.019100000000000002
decision_type=2 2 2 2 2 2 2 2 2 2 2 2 2 2 2 2 2 2 2 2 2 2 2 2 2 2
left_child=2 7 9 4 8 6 -6 15 18 10 20 22 19 17 23 21 -17 -9 -4 -13 -1 -2 -7 25 -16 -3
right_child=1 14 3 -5 5 11 -8 13 -10 -11 -12 12 -14 -15 24 16 -18 -19 -20 -21 -22 -23 -24 -25 -26 -27
leaf_value=1.2845632039423673e-07 -7.0135141072569238e-08 -9.8186441732650572e-08 1.0263152913768722e-08 -7.7139407021508583e-08 1.6886551102081946e-07 1.01731701226034e-07 -1.4830574149489924e-07 5.8865787567496094e-08 -4.7119803813732662e-08 1.6146589294813957e-07 4.8371503697334606e-08 1.6756806742485988e-07 8.9620573217142804e-08 -2.1990178593282679e-08 -1.5209756089889734e-07 -1.1436173276146988e-07 -6.6661108931148466e-08 2.8243343130895939e-09 5.1823619383707291e-08 1.3240054807250056e-07 1.667852382070123e-07 -3.904101290030937e-08 7.1138094304146193e-08 -1.2036370557368686e-07 -1.3317134289536625e-07 -9.3965968517295553e-08
leaf_weight=23 30 20 21 34 22 24 24 26 37 35 30 29 22 27 34 30 33 20 22 27 20 32 24 34 30 20
leaf_count=23 30 20 21 34 22 24 24 26 37 35 30 29 22 27 34 30 33 20 22 27 20 32 24 34 30 20
internal_value=0 -7.46805e-08 6.36869e-08 4.09091e-08 5.68362e-08 8.55263e-08 3.38486e-09 -4.03574e-08 -4.84734e-09 1.24006e-07 1.06046e-07 1.15514e-07 1.3341e-07 1.36063e-08 -1.23927e-07 -7.18723e-08 -8.93757e-08 3.44999e-08 3.15266e-08 1.50612e-07 1.46284e-07 -5.40866e-08 8.64349e-08 -1.07235e-07 -1.43226e-07 -9.60762e-08
internal_weight=0 336 394 286 252 172 46 198 80 108 73 126 78 73 138 125 63 46 43 56 43 62 48 74 64 40
internal_count=730 336 394 286 252 172 46 198 80 108 73 126 78 73 138 125 63 46 43 56 43 62 48 74 64 40
is_linear=0
shrinkage=0.1


Tree=12
num_leaves=27
num_cat=0
split_feature=2 2 5 0 3 4 4 3 4 3 5 4 4 4 5 5 0 5 4 5 0 4 3 0 5 5
split_gain=2.81232e-10 4.60026e-11 4.38479e-11 4.35562e-11 3.61232e-11 3.43183e-11 9.35295e-11 2.72752e-11 9.96377e-12 6.75189e-12 6.44305e-12 2.00861e-11 4.41647e-12 4.30611e-12 3.60077e-12 3.39724e-12 2.8365e-12 1.50321e-12 1.44817e-12 8.78128e-13 5.83389e-13 5.25104e-13 4.62416e-13 4.59528e-13 1.44281e-14 8.97503e-15
threshold=19.000000000000004 22.500000000000004 0.021700000000000004 5.5000000000000009 25.000000000000004 3.5000000000000004 1.5000000000000002 35.000000000000007 2.5000000000000004 35.000000000000007 0.020500000000000004 3.5000000000000004 5.5000000000000009 6.5000000000000009 0.024500000000000004 0.024700000000000003 2.5000000000000004 0.025900000000000003 5.5000000000000009 0.020700000000000003 5.5000000000000009 4.5000000000000009 35.000000000000007 1.5000000000000002 0.019100000000000002 0.025300000000000003
decision_type=2 2 2 2 2 2 2 2 2 2 2 2 2 2 2 2 2 2 2 2 2 2 2 2 2 2
left_child=2 7 10 4 8 6 -6 15 17 13 16 -12 -9 25 19 -2 -1 -4 21 24 -20 -17 -16 -15 -3 -7
right_child=1 14 3 -5 5 9 -8 12 -10 -11 11 -13 -14 23 22 18 -18 -19 20 -21 -22 -23 -24 -25 -26 -27
leaf_value=1.1259295523130374e-07 -9.0606042610969554e-08 -8.8367799122579537e-08 9.236836616212584e-09 -6.9425468406838241e-08 1.5197896061636131e-07 1.083783668320848e-07 -1.3347516916913567e-07 3.5851494502960997e-08 -4.2407824509695818e-08 1.3853736774285025e-07 2.2685869907945743e-08 1.5534806342050918e-07 -1.3383447493099865e-08 5.5462463147390201e-08 -1.3688780714961896e-07 -5.124856759053387e-08 1.5546078378943563e-07 4.6641257265480434e-08 -7.9714016738563496e-08 -1.0832733699865406e-07 -5.6588859479826208e-08 -2.9509352703627205e-08 -1.1985421082272297e-07 7.6406205486989621e-08 -8.4569368539177968e-08 1.1122046657874307e-07
leaf_weight=33 36 20 21 34 22 20 24 38 37 39 25 21 35 22 34 25 29 22 20 34 24 20 30 20 20 25
leaf_count=33 36 20 21 34 22 20 24 38 37 39 25 21 35 22 34 25 29 22 20 34 24 20 30 20 20 25
internal_value=0 -6.72124e-08 5.73182e-08 3.68182e-08 5.11526e-08 7.69736e-08 3.04637e-09 -3.63217e-08 -4.3626e-09 1.03963e-07 1.11605e-07 8.3249e-08 1.22457e-08 8.84641e-08 -1.11534e-07 -6.46851e-08 1.32644e-07 2.8374e-08 -5.42002e-08 -9.65118e-08 -6.71003e-08 -4.15867e-08 -1.28903e-07 6.54357e-08 -8.64686e-08 1.09957e-07
internal_weight=0 336 394 286 252 172 46 198 80 126 108 46 73 87 138 125 62 43 89 74 44 45 64 42 40 45
internal_count=730 336 394 286 252 172 46 198 80 126 108 46 73 87 138 125 62 43 89 74 44 45 64 42 40 45
is_linear=0
shrinkage=0.1


Tree=13
num_leaves=27
num_cat=0
split_feature=2 0 4 4 3 0 2 0 5 5 4 4 5 5 5 3 4 5 0 0 4 5 0 5 3 5
split_gain=2.27798e-10 3.97652e-11 5.94761e-11 1.70086e-10 4.19112e-11 4.0674e-11 3.72621e-11 2.61642e-11 4.83099e-11 1.05999e-11 1.04972e-11 1.02926e-11 5.76031e-12 4.96095e-12 4.69732e-12 4.26449e-12 8.41676e-12 2.91662e-12 1.98496e-12 1.66764e-12 9.45241e-13 1.39541e-12 8.20944e-13 9.90755e-13 3.74557e-13 2.54798e-14
threshold=19.000000000000004 2.5000000000000004 2.5000000000000004 3.5000000000000004 25.000000000000004 5.5000000000000009 22.500000000000004 6.5000000000000009 0.022900000000000004 0.023100000000000002 2.5000000000000004 6.5000000000000009 0.023500000000000004 0.026300000000000004 0.026700000000000005 35.000000000000007 2.5000000000000004 0.024500000000000004 1.5000000000000002 1.0000000180025095e-35 5.5000000000000009 0.024700000000000003 5.5000000000000009 0.020300000000000002 35.000000000000007 0.021100000000000004
decision_type=2 2 2 2 2 2 2 2 2 2 2 2 2 2 2 2 2 2 2 2 2 2 2 2 2 2
left_child=1 4 12 -4 10 9 7 8 18 -5 -1 15 -3 20 -11 -6 25 22 -2 -13 21 -10 23 -8 -19 -17
right_child=6 2 3 5 11 -7 17 -9 13 14 -12 19 -14 -15 -16 16 -18 24 -20 -21 -22 -23 -24 -25 -26 -27
leaf_value=4.028590465336661e-08 4.9005950872246795e-08 1.3705986369976535e-07 -2.2800255597606643e-07 1.540730806937063e-07 9.7689183877338196e-08 -3.7412748933961455e-08 -8.1891162674689146e-08 -1.2226034223112541e-07 -3.3544894474278986e-08 3.0590150930098761e-08 -5.3982582484547408e-08 9.411644416855858e-08 7.1693533099958232e-08 -1.6798335958846587e-08 9.8306339796614521e-08 1.1123984326001269e-07 1.8884415947903346e-07 -1.2319902596653479e-07 9.1662045657396149e-08 6.0000297482478821e-08 -7.3317435395212852e-08 -6.6475270128628681e-08 -7.0667464861658277e-08 -1.098302917057481e-07 -1.0786879064047146e-07 1.1617153703014084e-07
leaf_weight=27 20 28 30 20 37 38 30 28 22 20 21 23 26 34 21 22 23 34 24 38 39 31 22 22 30 20
leaf_count=27 20 28 30 20 37 38 30 28 22 20 21 23 26 34 21 22 23 34 24 38 39 31 22 22 30 20
internal_value=0 5.15864e-08 1.74735e-08 -1.94113e-08 8.11725e-08 4.37981e-08 -6.04912e-08 -3.26895e-08 -1.79367e-08 9.43885e-08 -9.56558e-10 1.05358e-07 1.05587e-07 -4.94384e-08 6.52741e-08 1.2479e-07 1.40217e-07 -1.00381e-07 7.22729e-08 7.28638e-08 -6.15011e-08 -5.28061e-08 -8.68606e-08 -9.37116e-08 -1.16013e-07 1.13588e-07
internal_weight=0 394 183 129 211 99 336 198 170 61 48 163 54 126 41 102 65 138 44 61 92 53 74 52 64 42
internal_count=730 394 183 129 211 99 336 198 170 61 48 163 54 126 41 102 65 138 44 61 92 53 74 52 64 42
is_linear=0
shrinkage=0.1


Tree=14
num_leaves=27
num_cat=0
split_feature=2 0 4 4 3 0 2 0 5 5 4 4 5 5 3 4 5 0 0 0 0 5 5 0 0 5
split_gain=1.84517e-10 3.22098e-11 4.81756e-11 1.37769e-10 3.3948e-11 3.2946e-11 3.01823e-11 2.1193e-11 3.91311e-11 8.93664e-12 8.50276e-12 8.33697e-12 4.66585e-12 4.03153e-12 3.45423e-12 6.81757e-12 2.46835e-12 2.75609e-12 3.72013e-12 1.60781e-12 1.35079e-12 1.24621e-12 1.11572e-12 2.03347e-12 1.07491e-13 2.06386e-14
threshold=19.000000000000004 2.5000000000000004 2.5000000000000004 3.5000000000000004 25.000000000000004 5.5000000000000009 22.500000000000004 6.5000000000000009 0.022900000000000004 0.023900000000000005 2.5000000000000004 6.5000000000000009 0.023500000000000004 0.026500000000000003 35.000000000000007 2.5000000000000004 0.021100000000000004 3.5000000000000004 6.5000000000000009 1.5000000000000002 1.0000000180025095e-35 0.025300000000000003 0.025700000000000004 1.5000000000000002 3.5000000000000004 0.021100000000000004
decision_type=2 2 2 2 2 2 2 2 2 2 2 2 2 2 2 2 2 2 2 2 2 2 2 2 2 2
left_child=1 4 12 -4 10 9 7 8 19 -5 -1 14 -3 22 -6 25 24 -18 -19 -2 -13 -20 23 -10 -8 -16
right_child=6 2 3 5 11 -7 16 -9 13 -11 -12 20 -14 -15 15 -17 17 18 21 -21 -22 -23 -24 -25 -26 -27
leaf_value=3.6257315109103862e-08 4.4105355936352453e-08 1.2335387781701813e-07 -2.0520230423907532e-07 1.3247412532872242e-07 8.7920265681642953e-08 -3.3671477330331428e-08 -7.5487482604330593e-08 -1.1003430947350727e-07 -3.2912104244221844e-08 5.4122944742157169e-08 -4.8584323611830123e-08 8.4704799974133499e-08 6.4524180241566974e-08 -1.2496478395777427e-08 1.0011585957027015e-07 1.6995974340755746e-07 -7.0456295997445303e-08 -1.4373689677685519e-07 -7.5793753385680492e-08 8.2495840440325685e-08 5.400026744935648e-08 -1.0854659010944418e-07 -7.4265808290941884e-08 -6.61144543455196e-08 -6.5651721641302175e-08 1.0455438385292839e-07
leaf_weight=27 20 28 30 24 37 38 25 28 39 37 21 23 26 30 22 23 24 22 21 24 38 26 22 35 20 20
leaf_count=27 20 28 30 24 37 38 25 28 39 37 21 23 26 30 22 23 24 22 21 24 38 26 22 35 20 20
internal_value=0 4.64278e-08 1.57261e-08 -1.74702e-08 7.30553e-08 3.94183e-08 -5.44421e-08 -2.94206e-08 -1.6143e-08 8.49496e-08 -8.60902e-10 9.4822e-08 9.50285e-08 -4.44946e-08 1.12311e-07 1.26196e-07 -9.03425e-08 -9.96456e-08 -1.09798e-07 6.50456e-08 6.55774e-08 -9.39123e-08 -5.4494e-08 -4.86159e-08 -7.1116e-08 1.02229e-07
internal_weight=0 394 183 129 211 99 336 198 170 61 48 163 54 126 102 65 138 93 69 44 61 47 96 74 45 42
internal_count=730 394 183 129 211 99 336 198 170 61 48 163 54 126 102 65 138 93 69 44 61 47 96 74 45 42
is_linear=0
shrinkage=0.1


Tree=15
num_leaves=26
num_cat=0
split_feature=2 5 0 5 4 4 0 3 2 0 5 4 3 0 0 5 4 5 0 0 0 5 4 5 5
split_gain=1.49458e-10 2.66571e-11 4.10004e-11 4.79419e-11 4.721e-11 1.1687e-10 4.7951e-11 2.69255e-11 2.44477e-11 1.71663e-11 3.16962e-11 6.88724e-12 6.47001e-12 4.21116e-12 3.61732e-12 3.37025e-12 2.66963e-12 2.02099e-12 2.04741e-12 2.22232e-12 1.30233e-12 1.00943e-12 6.72223e-13 1.04413e-12 2.02223e-14
threshold=19.000000000000004 0.020500000000000004 2.5000000000000004 0.026900000000000004 2.5000000000000004 3.5000000000000004 5.5000000000000009 25.000000000000004 22.500000000000004 6.5000000000000009 0.022900000000000004 2.5000000000000004 35.000000000000007 1.5000000000000002 2.5000000000000004 0.026300000000000004 6.5000000000000009 0.020700000000000003 3.5000000000000004 6.5000000000000009 1.5000000000000002 0.025300000000000003 5.5000000000000009 0.024700000000000003 0.019100000000000002
decision_type=2 2 2 2 2 2 2 2 2 2 2 2 2 2 2 2 2 2 2 2 2 2 2 2 2
left_child=1 14 7 4 -4 -6 -7 11 9 10 20 -3 13 -9 -1 22 -14 24 -19 -20 -2 -21 23 -12 -10
right_child=8 2 3 -5 5 6 -8 12 17 -11 15 -13 16 -15 -16 -17 -18 18 19 21 -22 -23 -24 -25 -26
leaf_value=7.9332686844033814e-08 3.969482051502382e-08 3.2631584137679631e-08 7.076820237773885e-08 1.0170713542478894e-07 -2.6697870046508919e-07 6.6200733191597777e-08 -1.0359317442486106e-07 4.2297215378232217e-08 -6.461471402374741e-08 -9.9030878798954195e-08 -2.5993675462581739e-08 -4.3725891868142582e-08 1.2453783395541195e-07 9.4237970592479956e-08 1.2774252147816875e-07 -1.31421568046431e-08 8.3077235672135429e-08 -6.4340580492316955e-08 -1.2095696648045236e-07 -6.8214377215608262e-08 7.4246256964727319e-08 -9.7691930005357096e-08 -5.9952345961751993e-08 -5.4479107118005969e-08 -6.0117798099668108e-08
leaf_weight=33 20 27 31 32 23 39 29 37 20 28 22 21 41 27 29 34 25 25 26 21 24 26 39 31 20
leaf_count=33 20 27 31 32 23 39 29 37 20 28 22 21 41 27 29 34 25 25 26 21 24 26 39 31 20
internal_value=0 4.1785e-08 3.05445e-08 -7.23663e-09 -3.5812e-08 -7.21196e-08 -6.21137e-09 6.32315e-08 -4.89979e-08 -2.64785e-08 -1.45287e-08 -7.74812e-10 8.68646e-08 6.42097e-08 1.01976e-07 -4.00451e-08 1.08833e-07 -8.13082e-08 -8.90397e-08 -9.74983e-08 5.85411e-08 -8.45211e-08 -4.99876e-08 -4.2655e-08 -6.23663e-08
internal_weight=0 394 332 154 122 91 68 178 336 198 170 48 130 64 62 126 66 138 98 73 44 47 92 53 40
internal_count=730 394 332 154 122 91 68 178 336 198 170 48 130 64 62 126 66 138 98 73 44 47 92 53 40
is_linear=0
shrinkage=0.1


Tree=16
num_leaves=27
num_cat=0
split_feature=2 5 0 5 4 4 0 3 2 4 0 5 4 3 0 5 5 4 4 5 0 0 3 0 5 5
split_gain=1.21061e-10 2.15923e-11 3.32104e-11 3.98214e-11 5.09973e-11 3.39303e-11 7.30872e-11 2.18097e-11 1.98026e-11 1.54083e-11 1.39047e-11 2.56739e-11 5.57866e-12 5.24071e-12 3.41104e-12 3.16968e-12 2.72991e-12 2.1624e-12 1.84913e-12 4.82023e-12 1.05489e-12 1.00398e-12 6.89385e-13 6.08796e-13 1.51652e-12 5.22943e-13
threshold=19.000000000000004 0.020500000000000004 2.5000000000000004 0.025500000000000005 2.5000000000000004 6.5000000000000009 5.5000000000000009 25.000000000000004 22.500000000000004 3.5000000000000004 6.5000000000000009 0.022900000000000004 2.5000000000000004 35.000000000000007 1.5000000000000002 0.019900000000000004 0.026300000000000004 6.5000000000000009 4.5000000000000009 0.023500000000000004 1.5000000000000002 3.5000000000000004 35.000000000000007 3.5000000000000004 0.025300000000000003 0.024300000000000006
decision_type=2 2 2 2 2 2 2 2 2 2 2 2 2 2 2 2 2 2 2 2 2 2 2 2 2 2
left_child=1 15 7 4 -4 -6 -7 12 10 -5 11 20 -3 14 -9 -1 23 -15 -10 21 -2 -20 -21 24 25 -13
right_child=8 2 3 9 5 6 -8 13 18 -11 -12 16 -14 17 -16 -17 -18 -19 19 22 -22 -23 -24 -25 -26 -27
leaf_value=7.4414656208564556e-08 3.572533898932306e-08 2.936842615023731e-08 7.8652514901023099e-08 -1.1924383613859391e-08 -1.8083814661797358e-07 9.2133132541376169e-08 -1.6563216356437558e-07 3.806749525573331e-08 -9.8405867365869431e-08 9.4321160798580783e-08 -8.9127790110182001e-08 -4.0459563734884795e-08 -3.9353306158758307e-08 1.1208405038353483e-07 8.4814172922691541e-08 1.2122126236135955e-07 -1.1827941025630171e-08 7.4769511797967426e-08 -6.1015657903951134e-08 -9.7588323958082891e-08 6.6821631043249382e-08 -3.303864603814308e-08 -7.6487900491084567e-08 -5.9946388661490437e-08 -6.1677799347075565e-08 -1.9565941378679488e-08
leaf_weight=39 20 27 24 21 26 22 22 37 24 39 28 25 21 41 27 23 34 25 23 30 24 29 32 21 23 23
leaf_count=39 20 27 24 21 26 22 22 37 24 39 28 25 21 41 27 23 34 25 23 30 24 29 32 21 23 23
internal_value=0 3.76065e-08 2.749e-08 -6.51297e-09 -4.71395e-08 -9.02681e-08 -3.67495e-08 5.69084e-08 -4.40981e-08 5.71352e-08 -2.38307e-08 -1.30758e-08 -6.97332e-10 7.81782e-08 5.77887e-08 9.17784e-08 -3.60406e-08 9.79498e-08 -7.31774e-08 -6.78662e-08 5.2687e-08 -4.54131e-08 -8.66978e-08 -4.49888e-08 -4.05647e-08 -3.0448e-08
internal_weight=0 394 332 154 94 70 44 178 336 60 198 170 48 130 64 62 126 66 138 114 44 52 62 92 71 48
internal_count=730 394 332 154 94 70 44 178 336 60 198 170 48 130 64 62 126 66 138 114 44 52 62 92 71 48
is_linear=0
shrinkage=0.1


Tree=17
num_leaves=25
num_cat=0
split_feature=2 5 0 5 4 4 0 3 2 0 5 4 3 0 0 5 4 0 3 0 0 4 5 5
split_gain=9.80597e-11 1.74897e-11 2.69004e-11 3.31726e-11 3.18218e-11 8.60088e-11 3.23982e-11 1.76658e-11 1.60401e-11 1.12628e-11 2.07958e-11 4.51872e-12 4.24497e-12 3.16959e-12 2.76294e-12 2.21122e-12 1.75154e-12 1.59289e-12 1.92035e-12 9.7822e-13 8.54458e-13 5.02555e-13 7.81594e-13 1.44847e-13
threshold=19.000000000000004 0.020500000000000004 2.5000000000000004 0.026900000000000004 2.5000000000000004 3.5000000000000004 5.5000000000000009 25.000000000000004 22.500000000000004 6.5000000000000009 0.022900000000000004 2.5000000000000004 35.000000000000007 2.5000000000000004 1.5000000000000002 0.026300000000000004 6.5000000000000009 3.5000000000000004 35.000000000000007 6.5000000000000009 1.5000000000000002 5.5000000000000009 0.024700000000000003 0.020300000000000002
decision_type=2 2 2 2 2 2 2 2 2 2 2 2 2 2 2 2 2 2 2 2 2 2 2 2
left_child=1 13 7 4 -4 -6 -7 11 9 10 20 -3 14 -1 -9 21 -14 23 -19 -20 -2 22 -12 -10
right_child=8 2 3 -5 5 6 -8 12 17 -11 15 -13 16 -15 -16 -17 -18 18 19 -21 -22 -23 -24 -25
leaf_value=6.1404866231470986e-08 3.2152804783081027e-08 2.6431582361502244e-08 5.787141586302647e-08 8.4760444241105409e-08 -2.2660346120495017e-07 5.6621802166581316e-08 -8.2945376862716298e-08 3.4260744180408657e-08 -5.792726305742235e-08 -8.0215012308672489e-08 -1.9734629687982102e-08 -3.5417972030348295e-08 1.0087564649829691e-07 1.0671979348966319e-07 7.6332756609392376e-08 -1.0645146934855111e-08 6.7292560743226212e-08 -9.8005330547342356e-08 -7.9007840709482172e-08 -5.4233897785906806e-08 6.0139468534744139e-08 -4.9105870795292861e-08 -4.4380049864458218e-08 -4.6865129352736714e-08
leaf_weight=33 20 27 31 32 23 39 29 37 20 28 22 21 41 29 27 34 25 24 28 37 24 39 31 29
leaf_count=33 20 27 31 32 23 39 29 37 20 28 22 21 41 29 27 34 25 24 28 37 24 39 31 29
internal_value=0 3.38458e-08 2.4741e-08 -5.86167e-09 -2.96314e-08 -5.94401e-08 -2.89949e-09 5.12175e-08 -3.96883e-08 -2.14476e-08 -1.17683e-08 -6.27598e-10 7.03604e-08 8.26006e-08 5.20099e-08 -3.24366e-08 8.81548e-08 -6.58597e-08 -7.38315e-08 -6.49058e-08 4.74183e-08 -4.04899e-08 -3.41499e-08 -5.13803e-08
internal_weight=0 394 332 154 122 91 68 178 336 198 170 48 130 62 64 126 66 138 89 65 44 92 53 49
internal_count=730 394 332 154 122 91 68 178 336 198 170 48 130 62 64 126 66 138 89 65 44 92 53 49
is_linear=0
shrinkage=0.1


Tree=18
num_leaves=27
num_cat=0
split_feature=2 0 3 4 4 5 0 2 3 5 0 5 5 5 0 0 5 4 5 3 0 5 4 4 0 3
split_gain=7.94283e-11 1.52681e-11 1.73856e-11 2.4542e-11 7.74077e-11 1.79348e-11 4.48654e-11 1.29925e-11 1.12922e-11 1.02127e-11 9.12289e-12 1.68446e-11 6.37353e-12 4.75683e-12 4.16354e-12 3.67294e-12 1.8214e-12 1.63254e-12 3.68728e-12 1.49949e-12 9.10792e-13 8.02167e-13 1.4133e-12 2.22542e-12 6.92111e-13 4.00238e-13
threshold=19.000000000000004 1.0000000180025095e-35 25.000000000000004 2.5000000000000004 3.5000000000000004 0.025500000000000005 5.5000000000000009 22.500000000000004 35.000000000000007 0.026500000000000003 6.5000000000000009 0.022900000000000004 0.019900000000000004 0.023900000000000005 2.5000000000000004 2.5000000000000004 0.026500000000000003 4.5000000000000009 0.023500000000000004 35.000000000000007 3.5000000000000004 0.025700000000000004 5.5000000000000009 4.5000000000000009 1.5000000000000002 35.000000000000007
decision_type=2 2 2 2 2 2 2 2 2 2 2 2 2 2 2 2 2 2 2 2 2 2 2 2 2 2
left_child=1 19 9 12 -5 6 13 10 -7 -3 11 24 -4 14 -6 -14 21 -9 20 -1 -19 22 23 -13 -2 -20
right_child=7 2 3 4 5 8 -8 17 -10 -11 -12 16 15 -15 -16 -17 -18 18 25 -21 -22 -23 -24 -25 -26 -27
leaf_value=5.9645766644475131e-08 2.8937524360062031e-08 -6.8563246568354272e-08 4.3428153517766077e-08 -1.3869675277484413e-07 4.7503871112835994e-08 5.2339013053940663e-08 -9.6106946073221556e-08 -8.2978664280493799e-08 1.4934491306739518e-07 1.0234973028164668e-08 -7.2193511105719417e-08 -4.415459706308411e-08 7.8599733808395275e-08 2.1880053794582697e-08 1.0224403403924499e-07 1.3638412387318899e-07 -7.6853062106844544e-09 -4.9506135585167378e-08 -7.9051763629915215e-08 8.9595994318125705e-08 -2.2859125718747269e-08 -5.2678951027603076e-08 -4.7666446215307214e-08 1.011452188670603e-09 5.4125520613605242e-08 -6.2974236847423986e-08
leaf_weight=35 20 29 24 28 33 30 26 24 20 38 28 20 22 31 24 22 30 23 30 32 29 22 30 24 24 32
leaf_count=35 20 29 24 28 33 30 26 24 20 38 28 20 22 31 24 22 30 23 30 32 29 22 30 24 24 32
internal_value=0 3.04613e-08 2.15506e-08 3.32556e-08 1.49716e-08 4.12076e-08 1.93069e-08 -3.57194e-08 9.11414e-08 -2.38717e-08 -1.93028e-08 -1.05914e-08 8.48812e-08 5.34064e-08 7.05524e-08 1.07492e-07 -2.91929e-08 -5.92737e-08 -5.42832e-08 7.39504e-08 -3.46453e-08 -3.5914e-08 -3.09299e-08 -1.95186e-08 4.26764e-08 -7.07537e-08
internal_weight=0 394 327 260 192 164 114 336 50 67 198 170 68 88 57 44 126 138 114 67 52 96 74 44 44 62
internal_count=730 394 327 260 192 164 114 336 50 67 198 170 68 88 57 44 126 138 114 67 52 96 74 44 44 62
is_linear=0
shrinkage=0.1


Tree=19
num_leaves=28
num_cat=0
split_feature=2 5 0 5 0 3 3 5 2 0 5 4 4 3 0 5 5 5 0 5 0 0 5 0 5 5 5
split_gain=6.43369e-11 1.36846e-11 2.00489e-11 2.5334e-11 1.32551e-11 1.22516e-11 1.21717e-11 1.07309e-11 1.05239e-11 7.38954e-12 1.36442e-11 3.59994e-12 3.28555e-12 3.20392e-12 2.39697e-12 1.51945e-12 2.37348e-12 1.50718e-12 1.43475e-12 1.41587e-12 2.24548e-12 5.6061e-13 5.55203e-13 3.6277e-13 1.01389e-12 4.62206e-13 1.53635e-13
threshold=19.000000000000004 0.020500000000000004 2.5000000000000004 0.024100000000000003 3.5000000000000004 25.000000000000004 35.000000000000007 0.022700000000000001 22.500000000000004 6.5000000000000009 0.022900000000000004 2.5000000000000004 2.5000000000000004 35.000000000000007 1.5000000000000002 0.022700000000000001 0.021300000000000003 0.026300000000000004 3.5000000000000004 0.021100000000000004 6.5000000000000009 1.5000000000000002 0.025300000000000003 3.5000000000000004 0.025300000000000003 0.024300000000000006 0.020300000000000002
decision_type=2 2 2 2 2 2 2 2 2 2 2 2 2 2 2 2 2 2 2 2 2 2 2 2 2 2 2
left_child=1 12 5 7 -5 11 -6 -4 9 10 21 -3 -1 14 -7 16 -15 23 26 -20 -21 -2 -22 24 25 -12 -10
right_child=8 2 3 4 6 13 -8 -9 18 -11 17 -13 -14 15 -16 -17 -18 -19 19 20 22 -23 -24 -25 -26 -27 -28
leaf_value=5.0322430484227101e-08 2.6043771557127114e-08 2.3195498815514133e-08 -1.9350874946866271e-08 -3.2876025305280826e-08 1.0673587188866683e-08 2.5686378369650165e-08 9.6387542344681763e-08 -1.0495350529730011e-07 -4.6347110806976845e-08 -6.4974157965025375e-08 -3.0647535226080437e-08 -3.2009273606295864e-08 9.6750823306866495e-08 8.5363015323025593e-08 6.4873034259731118e-08 9.663074209242951e-08 3.9889858495133595e-08 -8.2827645813916422e-09 -3.7484574839652396e-08 -9.4070105143890203e-08 -4.3266922083213491e-08 4.8712968999294528e-08 -6.5128352844112674e-08 -4.4468666801765811e-08 -4.6770603840082127e-08 -1.1004682181939406e-08 -3.4954357180353181e-08
leaf_weight=35 20 27 32 28 37 37 30 27 20 28 25 21 27 24 27 20 22 34 20 22 21 24 26 21 23 23 29
leaf_count=35 20 27 32 28 37 37 30 27 20 28 25 21 27 24 27 20 22 34 20 22 21 24 26 21 23 23 29
internal_value=0 2.74151e-08 1.93615e-08 -7.05813e-09 2.49055e-08 4.22189e-08 4.9053e-08 -5.8525e-08 -3.21475e-08 -1.73726e-08 -9.53229e-09 -9.56589e-10 7.05412e-08 5.81606e-08 4.22182e-08 7.36198e-08 6.3615e-08 -2.62736e-08 -5.33463e-08 -6.09121e-08 -6.77027e-08 3.84088e-08 -5.53605e-08 -3.29224e-08 -2.95073e-08 -2.12353e-08 -3.96045e-08
internal_weight=0 394 332 154 95 178 67 59 336 198 170 48 62 130 64 66 46 126 138 89 69 44 47 92 71 48 49
internal_count=730 394 332 154 95 178 67 59 336 198 170 48 62 130 64 66 46 126 138 89 69 44 47 92 71 48 49
is_linear=0
shrinkage=0.1


Tree=20
num_leaves=28
num_cat=0
split_feature=2 5 0 5 4 4 0 5 3 2 0 5 4 4 0 4 5 5 0 0 0 0 3 0 5 5 5
split_gain=5.21129e-11 1.11325e-11 1.50069e-11 2.29035e-11 1.62773e-11 5.38136e-11 2.06408e-11 1.50048e-11 9.44431e-12 8.52437e-12 5.98553e-12 1.10518e-11 2.91595e-12 2.65429e-12 2.02781e-12 1.42877e-12 2.64759e-12 1.22082e-12 1.20883e-12 1.01999e-12 7.64439e-13 4.54094e-13 3.14935e-13 2.93844e-13 8.21252e-13 3.74387e-13 5.49997e-14
threshold=19.000000000000004 0.020700000000000003 2.5000000000000004 0.027100000000000003 2.5000000000000004 3.5000000000000004 5.5000000000000009 0.023900000000000005 25.000000000000004 22.500000000000004 6.5000000000000009 0.022900000000000004 2.5000000000000004 6.5000000000000009 3.5000000000000004 4.5000000000000009 0.023500000000000004 0.026300000000000004 1.5000000000000002 1.0000000180025095e-35 3.5000000000000004 1.5000000000000002 35.000000000000007 3.5000000000000004 0.025300000000000003 0.024300000000000006 0.022900000000000004
decision_type=2 2 2 2 2 2 2 2 2 2 2 2 2 2 2 2 2 2 2 2 2 2 2 2 2 2 2
left_child=1 14 8 4 -4 -6 7 -7 12 10 11 21 -3 18 -1 -11 20 23 26 -15 -17 -2 -18 24 25 -13 -10
right_child=9 2 3 -5 5 6 -8 -9 13 15 -12 17 -14 19 -16 16 22 -19 -20 -21 -22 -23 -24 -25 -26 -27 -28
leaf_value=4.6587200403955184e-08 2.34393950560019e-08 2.0875949712928088e-08 3.9859089705866309e-08 7.7361503330124578e-08 -1.8162140597930624e-07 1.0210425040484205e-07 -6.6270348980287008e-08 -1.7437794023559643e-08 4.7378403493780757e-08 -7.0187983321664174e-08 -5.8476745489120608e-08 -2.7582781285673266e-08 -2.8808348164131659e-08 5.0463393920706175e-08 8.150414594266835e-08 -4.0317080348635818e-08 -6.466046636788292e-08 -7.4544879706947728e-09 7.6345030741720166e-08 2.1728299728351886e-08 -1.5904691830980928e-08 4.3841672322149822e-08 -5.0398782702743006e-08 -4.0021800876540884e-08 -4.2093542935331049e-08 -9.9042137095526631e-09 5.4794579784633873e-08
leaf_weight=39 20 27 30 27 22 21 30 21 20 24 28 25 21 21 29 23 30 34 36 30 29 24 32 21 23 23 20
leaf_count=39 20 27 30 27 22 21 30 21 20 24 28 25 21 21 29 23 30 34 36 30 29 24 32 21 23 23 20
internal_value=0 2.46736e-08 1.69966e-08 -6.10101e-09 -2.42743e-08 -4.47424e-08 -2.91826e-09 4.23332e-08 3.69265e-08 -2.89328e-08 -1.56353e-08 -8.57906e-09 -8.60931e-10 5.12084e-08 6.14783e-08 -4.80117e-08 -4.3343e-08 -2.36463e-08 6.30511e-08 3.35604e-08 -2.67025e-08 3.45679e-08 -5.72996e-08 -2.96302e-08 -2.65566e-08 -1.91118e-08 5.10865e-08
internal_weight=0 394 326 151 124 94 72 42 175 336 198 170 48 127 68 138 114 126 76 51 52 44 62 92 71 48 40
internal_count=730 394 326 151 124 94 72 42 175 336 198 170 48 127 68 138 114 126 76 51 52 44 62 92 71 48 40
is_linear=0
shrinkage=0.1


Tree=21
num_leaves=28
num_cat=0
split_feature=2 0 3 4 4 5 0 3 5 2 5 0 3 0 0 5 0 5 0 5 0 5 5 5 5 0 5
split_gain=4.22115e-11 9.98513e-12 1.0618e-11 1.64076e-11 5.34376e-11 1.36786e-11 2.94292e-11 9.29463e-12 8.12232e-12 6.90474e-12 5.6842e-12 4.84828e-12 9.07083e-12 4.61029e-12 3.86371e-12 3.53539e-12 4.01853e-12 3.24365e-12 1.29891e-12 9.12393e-13 1.78923e-12 7.53991e-13 1.45379e-12 3.84538e-13 2.86768e-13 4.4016e-13 1.56192e-13
threshold=19.000000000000004 1.0000000180025095e-35 25.000000000000004 2.5000000000000004 3.5000000000000004 0.025500000000000005 5.5000000000000009 35.000000000000007 0.026500000000000003 22.500000000000004 0.019900000000000004 6.5000000000000009 35.000000000000007 1.5000000000000002 2.5000000000000004 0.023900000000000005 2.5000000000000004 0.024700000000000003 3.5000000000000004 0.021100000000000004 6.5000000000000009 0.021100000000000004 0.024900000000000002 0.025300000000000003 0.025500000000000005 1.5000000000000002 0.020300000000000002
decision_type=2 2 2 2 2 2 2 2 2 2 2 2 2 2 2 2 2 2 2 2 2 2 2 2 2 2 2
left_child=1 21 8 10 -5 6 15 -7 -3 11 -4 12 17 -14 -12 16 -6 -2 26 -20 -21 -1 -23 -22 -19 -26 -11
right_child=9 2 3 4 5 7 -8 -9 -10 18 14 -13 13 -15 -16 -17 -18 24 19 20 23 22 -24 -25 25 -27 -28
leaf_value=7.3076229985720916e-08 -5.062237599041871e-08 -6.0353302273072062e-08 2.7212065637864199e-08 -1.1848011313629416e-07 3.1625486369769146e-08 3.9400973375810133e-08 -8.1604053381312277e-08 1.2740964425717038e-07 9.9194141723645797e-09 -3.6933919055348603e-08 5.8079290807003507e-08 -5.2629069914798627e-08 -6.6886582843801134e-09 4.8480071823675531e-08 1.1734532899316202e-07 1.2308430971216006e-08 8.5403941726032914e-08 -2.2400532181017971e-08 -3.16028156532866e-08 -7.9397096872859482e-08 -3.4778504055479755e-08 3.4616069901114945e-08 7.0477594391604733e-08 -5.2972260205636375e-08 -1.8618833664163503e-08 -3.5070312466044789e-11 -2.5446749688250029e-08
leaf_weight=21 34 29 24 28 33 30 26 20 38 20 22 28 28 33 22 31 24 24 20 22 21 26 20 26 25 26 29
leaf_count=21 34 29 24 28 33 30 26 20 38 20 22 28 28 33 22 31 24 24 20 22 21 26 20 26 25 26 29
internal_value=0 2.22063e-08 1.50003e-08 2.41477e-08 9.19776e-09 3.09964e-08 1.18701e-08 7.46044e-08 -2.04971e-08 -2.60395e-08 6.63593e-08 -1.40718e-08 -7.72115e-09 2.31567e-08 8.77123e-08 3.94875e-08 5.4269e-08 -2.50014e-08 -4.32105e-08 -5.04092e-08 -5.58603e-08 5.73757e-08 5.0208e-08 -4.48431e-08 -1.33866e-08 -9.14476e-09 -3.01354e-08
internal_weight=0 394 327 260 192 164 114 50 67 336 68 198 170 61 44 88 57 109 138 89 69 67 46 47 75 51 49
internal_count=730 394 327 260 192 164 114 50 67 336 68 198 170 61 44 88 57 109 138 89 69 67 46 47 75 51 49
is_linear=0
shrinkage=0.1


Tree=22
num_leaves=26
num_cat=0
split_feature=2 5 0 5 0 3 3 5 2 4 0 5 0 4 0 4 5 5 5 0 5 0 5 3 5
split_gain=3.41913e-11 8.82821e-12 1.2438e-11 2.10187e-11 9.26415e-12 9.64536e-12 7.28546e-12 7.20403e-12 5.59284e-12 4.11581e-12 3.92711e-12 7.73688e-12 3.40808e-12 1.74913e-12 1.67101e-12 1.25331e-12 1.90476e-12 1.17921e-12 1.00398e-12 9.7461e-13 8.76161e-13 1.72228e-12 7.54165e-13 2.48826e-13 1.99113e-14
threshold=19.000000000000004 0.020500000000000004 2.5000000000000004 0.024100000000000003 3.5000000000000004 35.000000000000007 35.000000000000007 0.022700000000000001 22.500000000000004 6.5000000000000009 6.5000000000000009 0.023300000000000005 2.5000000000000004 2.5000000000000004 1.5000000000000002 4.5000000000000009 0.023500000000000004 0.025700000000000004 0.026700000000000005 1.5000000000000002 0.026100000000000002 1.5000000000000002 0.020300000000000002 35.000000000000007 0.021900000000000003
decision_type=2 2 2 2 2 2 2 2 2 2 2 2 2 2 2 2 2 2 2 2 2 2 2 2 2
left_child=1 12 6 7 -5 -6 9 -4 10 14 11 19 -1 -8 -3 -10 22 -11 20 -2 21 -13 -17 -18 -15
right_child=8 2 3 4 5 -7 13 -9 15 17 -12 18 -14 24 -16 16 23 -19 -20 -21 -22 -23 -24 -25 -26
leaf_value=3.264565976199706e-08 1.1568872864316701e-08 4.6561213196127939e-08 -2.2073893690688352e-08 -2.6483723607790515e-08 7.8445656025048656e-09 8.4146415059530946e-08 3.702712381681295e-08 -9.2212453389956189e-08 -5.9659511479163526e-08 8.1415532093842558e-09 -4.73661630552767e-08 -5.4060439270441611e-09 7.9634501353329432e-08 7.2737674101864243e-08 1.5851277378974806e-08 -3.0715414827871732e-08 -5.2897540712137928e-08 -2.5786787909220537e-08 -1.4144313558778715e-09 3.9514129976594773e-08 -4.3726341854011251e-08 -3.5125048975386947e-08 -6.3393847424012252e-09 -4.0220784214284325e-08 6.8328902289582781e-08
leaf_weight=33 24 34 32 28 37 30 25 27 24 20 28 39 29 21 37 30 30 21 22 26 20 39 22 32 20
leaf_count=33 24 34 32 28 37 30 25 27 24 20 28 39 29 21 37 30 30 21 22 26 20 39 22 32 20
internal_value=0 1.99856e-08 1.3517e-08 -7.29223e-09 2.18221e-08 4.20096e-08 3.15204e-08 -5.41712e-08 -2.34355e-08 1.59901e-08 -1.26646e-08 -6.94904e-09 5.46243e-08 5.7875e-08 3.05574e-08 -3.88895e-08 -3.45168e-08 -9.23638e-09 -2.07196e-08 2.61004e-08 -2.50535e-08 -2.02655e-08 -2.04025e-08 -4.63547e-08 7.05871e-08
internal_weight=0 394 332 154 95 67 178 59 336 112 198 170 62 66 71 138 114 41 120 50 98 78 52 62 41
internal_count=730 394 332 154 95 67 178 59 336 112 198 170 62 66 71 138 114 41 120 50 98 78 52 62 41
is_linear=0
shrinkage=0.1


Tree=23
num_leaves=28
num_cat=0
split_feature=2 0 5 5 4 4 3 0 5 2 0 5 3 0 5 0 0 0 4 0 4 5 0 5 5 5 5
split_gain=2.76949e-11 7.23043e-12 8.11897e-12 8.69611e-12 1.19992e-11 3.58369e-11 1.64393e-11 1.09244e-11 1.14361e-11 4.5302e-12 3.52817e-12 3.25355e-12 9.3916e-12 3.2038e-12 2.86182e-12 2.69946e-12 6.80129e-12 1.2841e-12 2.13725e-12 1.08781e-12 7.32561e-13 6.72108e-13 1.42444e-12 5.49404e-13 1.215e-12 2.59648e-13 1.38868e-13
threshold=19.000000000000004 1.0000000180025095e-35 0.020500000000000004 0.027900000000000005 2.5000000000000004 3.5000000000000004 35.000000000000007 5.5000000000000009 0.023900000000000005 22.500000000000004 2.5000000000000004 0.020500000000000004 35.000000000000007 2.5000000000000004 0.024300000000000006 1.5000000000000002 3.5000000000000004 5.5000000000000009 5.5000000000000009 3.5000000000000004 4.5000000000000009 0.021100000000000004 6.5000000000000009 0.021100000000000004 0.024900000000000002 0.025300000000000003 0.020300000000000002
decision_type=2 2 2 2 2 2 2 2 2 2 2 2 2 2 2 2 2 2 2 2 2 2 2 2 2 2 2
left_child=1 23 10 4 6 -6 -4 8 13 11 -3 -2 14 -7 -13 -10 -17 18 20 26 -16 -21 -23 -1 -25 -24 -11
right_child=9 2 3 -5 5 7 -8 -9 15 19 -12 12 -14 -15 17 16 -18 -19 -20 21 -22 22 25 24 -26 -27 -28
leaf_value=6.1316826274616601e-08 -3.9551366375476125e-08 1.707527511385365e-08 -1.8190696049111188e-08 6.7112201696502223e-08 -1.093056468670639e-07 3.5717542728592048e-08 7.993735338224521e-08 -4.5224415465283667e-08 -3.1239736320021193e-08 -2.9445383331605514e-08 7.1671051300688961e-08 -5.1667789820312881e-08 3.7280586458366137e-08 8.8232764502057164e-08 -1.8476854877378545e-08 4.4337330309231871e-08 -2.7320722395529629e-08 6.3386240002825755e-09 -4.336556610473608e-08 -2.5447191376315461e-08 5.5346615142800226e-09 -6.7267667638113634e-08 -2.8166492867177072e-08 2.7542120621777582e-08 6.0326391064791095e-08 -4.3116631085983783e-08 -1.8613956390038704e-08
leaf_weight=21 34 20 31 21 32 26 38 32 24 20 29 22 39 21 27 27 26 28 24 20 24 22 21 26 20 26 29
leaf_count=21 34 20 31 21 32 26 38 32 24 20 29 22 39 21 27 27 26 28 24 20 24 22 21 26 20 26 29
internal_value=0 1.79871e-08 1.18551e-08 5.23979e-09 1.84068e-10 -1.29064e-08 3.58508e-08 6.86781e-09 2.0311e-08 -2.1092e-08 4.93871e-08 -1.13981e-08 -5.56149e-09 5.91818e-08 -1.89282e-08 -3.41538e-09 9.18432e-09 -1.19353e-08 -1.87576e-08 -3.50005e-08 -7.17732e-09 -4.15883e-08 -4.62669e-08 4.79146e-08 4.17962e-08 -3.64368e-08 -2.30349e-08
internal_weight=0 394 327 278 257 188 69 156 124 336 49 198 164 47 125 77 53 103 75 138 51 89 69 67 46 47 49
internal_count=730 394 327 278 257 188 69 156 124 336 49 198 164 47 125 77 53 103 75 138 51 89 69 67 46 47 49
is_linear=0
shrinkage=0.1


Tree=24
num_leaves=27
num_cat=0
split_feature=2 5 5 0 4 0 5 3 2 0 5 3 4 4 4 4 5 5 0 0 5 0 3 0 5 5
split_gain=2.24329e-11 5.97682e-12 7.08524e-12 9.24408e-12 1.92189e-11 4.36627e-11 2.25198e-11 9.23775e-12 3.66946e-12 3.54264e-12 6.19868e-12 3.32147e-12 3.25035e-12 2.17609e-12 1.62798e-12 1.09804e-12 1.36735e-12 7.00741e-13 6.72757e-13 6.70541e-13 4.97406e-13 2.78618e-13 1.97119e-13 1.9696e-13 6.63017e-13 2.97695e-13
threshold=19.000000000000004 0.027900000000000005 0.020500000000000004 2.5000000000000004 2.5000000000000004 3.5000000000000004 0.024300000000000006 25.000000000000004 22.500000000000004 6.5000000000000009 0.023100000000000002 35.000000000000007 2.5000000000000004 6.5000000000000009 2.5000000000000004 4.5000000000000009 0.023500000000000004 0.026300000000000004 1.0000000180025095e-35 3.5000000000000004 0.024700000000000003 1.5000000000000002 35.000000000000007 3.5000000000000004 0.025300000000000003 0.024300000000000006
decision_type=2 2 2 2 2 2 2 2 2 2 2 2 2 2 2 2 2 2 2 2 2 2 2 2 2 2
left_child=1 2 12 7 -5 -6 -7 -4 9 10 21 -8 -1 14 -9 -10 19 23 -15 -17 -16 -2 -18 24 25 -12
right_child=8 -3 3 4 5 6 11 13 15 -11 17 -13 -14 18 20 16 22 -19 -20 -21 -22 -23 -24 -25 -26 -27
leaf_value=2.3862808952961655e-08 1.839298555885514e-08 6.5654714252678276e-08 -1.8883331174279763e-08 5.1498914675955475e-08 -1.377323286533283e-07 -5.6763528040922517e-08 2.658241210854821e-08 2.6527544633836443e-08 -5.0941396671314956e-08 -4.321749206123319e-08 -1.9613000638067343e-08 8.1039740996131868e-08 7.0041842982328086e-08 3.4418895818111836e-08 6.6981895204039411e-08 -2.8200061682905127e-08 -4.3260980409816814e-08 -4.2294597784826454e-09 1.1237461266898296e-08 -5.3360959849991058e-09 4.6725594512767284e-08 3.3972955041742622e-08 -3.1977974113139854e-08 -2.9560331088738339e-08 -3.2362647371603935e-08 -3.5237206852872554e-09
leaf_weight=35 22 23 40 36 29 33 24 25 24 28 23 21 27 21 27 23 30 34 31 29 22 24 32 21 23 23
leaf_count=35 22 23 40 36 29 33 24 25 24 28 23 21 27 21 27 23 30 34 31 29 22 24 32 21 23 23
internal_value=0 1.61884e-08 1.31217e-08 6.93148e-09 -1.17039e-08 -3.29684e-08 5.98226e-09 2.29849e-08 -1.89828e-08 -1.02583e-08 -4.82975e-09 5.19958e-08 4.3973e-08 3.62764e-08 4.72927e-08 -3.15005e-08 -2.74077e-08 -1.64601e-08 2.05992e-08 -1.5449e-08 5.78872e-08 2.65217e-08 -3.74375e-08 -2.10806e-08 -1.84998e-08 -1.15684e-08
internal_weight=0 394 371 309 143 107 78 166 336 198 170 45 62 126 74 138 114 124 52 52 49 46 62 90 69 46
internal_count=730 394 371 309 143 107 78 166 336 198 170 45 62 126 74 138 114 124 52 52 49 46 62 90 69 46
is_linear=0
shrinkage=0.1


Tree=25
num_leaves=27
num_cat=0
split_feature=2 0 3 4 4 5 0 5 5 0 0 2 5 3 5 0 5 0 0 5 0 5 5 5 5 0
split_gain=1.81707e-11 5.0812e-12 5.96819e-12 8.25286e-12 3.26247e-11 9.40528e-12 1.67686e-11 5.75425e-12 4.77078e-12 3.60048e-12 3.11172e-12 2.97226e-12 3.28875e-12 7.15251e-12 2.57799e-12 3.01297e-12 1.90869e-12 1.11219e-12 1.00706e-12 5.76136e-13 5.42344e-13 6.48394e-13 4.88946e-13 1.12991e-12 1.33054e-13 8.46016e-14
threshold=19.000000000000004 1.0000000180025095e-35 25.000000000000004 2.5000000000000004 3.5000000000000004 0.026100000000000002 5.5000000000000009 0.026500000000000003 0.019900000000000004 1.5000000000000002 2.5000000000000004 22.500000000000004 0.020500000000000004 35.000000000000007 0.025300000000000003 1.5000000000000002 0.023900000000000005 5.5000000000000009 3.5000000000000004 0.022300000000000004 6.5000000000000009 0.024700000000000003 0.024900000000000002 0.021300000000000003 0.020300000000000002 1.5000000000000002
decision_type=2 2 2 2 2 2 2 2 2 2 2 2 2 2 2 2 2 2 2 2 2 2 2 2 2 2
left_child=1 22 7 8 -5 6 9 -3 -4 -6 -10 12 -2 14 15 -14 19 25 24 -11 -20 -22 23 -1 -13 -16
right_child=11 2 3 4 5 -7 -8 -9 10 16 -12 18 13 -15 17 -17 -18 -19 20 -21 21 -23 -24 -25 -26 -27
leaf_value=4.9263825744697931e-08 -3.7537608650198123e-08 -5.073074933929826e-08 1.0360177367848186e-08 -9.407772937817885e-08 -1.0001701261435976e-09 6.6323998933850554e-08 -5.5693120041648094e-08 8.4173492082883471e-09 3.9193217899418704e-08 4.4249338838567167e-08 9.2380025504016072e-08 -2.3112305207462215e-08 -9.3765595406599327e-09 3.4023459696332118e-08 -1.3653555999214546e-08 -5.5886333352525787e-08 2.1947335352276048e-08 1.7780628667196652e-08 -4.3943301571710293e-08 6.7964708421186511e-08 -1.3979565762767266e-08 -3.6932131752820399e-08 5.2753503503311094e-08 1.8246700065869548e-08 -1.2510064426519735e-08 -5.1993401406491558e-09
leaf_weight=24 34 29 24 28 27 38 30 38 22 21 22 20 30 39 29 26 28 20 37 20 20 32 20 23 29 20
leaf_count=24 34 29 24 28 27 38 30 38 22 21 22 20 30 39 29 26 28 20 37 20 20 32 20 23 29 20
internal_value=0 1.45695e-08 9.4291e-09 1.62871e-08 5.68434e-09 2.27169e-08 9.56554e-09 -1.71841e-08 4.62243e-08 2.99589e-08 6.57866e-08 -1.70845e-08 -9.23249e-09 -3.36435e-09 -1.50294e-08 -3.09704e-08 4.20733e-08 -2.0917e-09 -2.83504e-08 5.58178e-08 -3.4689e-08 -2.81042e-08 3.96579e-08 3.40852e-08 -1.68375e-08 -1.02029e-08
internal_weight=0 394 327 260 192 164 126 67 68 96 44 336 198 164 125 56 69 69 138 41 89 52 67 47 49 49
internal_count=730 394 327 260 192 164 126 67 68 96 44 336 198 164 125 56 69 69 138 41 89 52 67 47 49 49
is_linear=0
shrinkage=0.1


Tree=26
num_leaves=28
num_cat=0
split_feature=2 5 0 5 4 0 3 3 4 4 2 0 5 4 5 0 4 5 5 0 5 5 4 4 0 3 5
split_gain=1.47182e-11 4.66308e-12 5.95553e-12 1.50885e-11 6.3325e-12 5.5027e-12 6.84855e-12 4.97277e-12 2.98182e-12 2.96295e-12 2.40753e-12 3.02721e-12 5.11092e-12 2.03241e-12 1.42314e-12 1.88688e-12 9.62881e-13 1.03355e-12 7.78988e-13 6.09003e-13 4.53093e-13 1.10131e-12 7.29789e-13 1.33669e-12 3.11633e-13 1.56776e-13 6.3565e-14
threshold=19.000000000000004 0.020500000000000004 2.5000000000000004 0.024100000000000003 3.5000000000000004 3.5000000000000004 35.000000000000007 35.000000000000007 6.5000000000000009 2.5000000000000004 22.500000000000004 6.5000000000000009 0.022900000000000004 2.5000000000000004 0.025100000000000004 1.5000000000000002 4.5000000000000009 0.023500000000000004 0.025700000000000004 3.5000000000000004 0.026700000000000005 0.026100000000000002 5.5000000000000009 4.5000000000000009 1.5000000000000002 35.000000000000007 0.021700000000000004
decision_type=2 2 2 2 2 2 2 2 2 2 2 2 2 2 2 2 2 2 2 2 2 2 2 2 2 2 2
left_child=1 9 7 4 -4 -5 -7 8 14 -1 11 12 24 -9 -3 -16 -12 19 -10 -18 21 22 23 -14 -2 -19 -15
right_child=10 2 3 5 -6 6 -8 13 18 -11 16 -13 20 26 15 -17 17 25 -20 -21 -22 -23 -24 -25 -26 -27 -28
leaf_value=1.908653907177284e-08 1.6831486617796543e-08 -1.5159993067655983e-11 -8.669426974952776e-08 -1.8549647709928003e-08 -1.9520707470219477e-08 5.4494612114111181e-09 6.9744168259925725e-08 2.0169765093669412e-08 6.9084846288092202e-10 6.3176750969768038e-08 -4.3720510045641703e-08 -3.8776568952617455e-08 -2.0600056180681935e-08 5.2310689451218191e-08 4.925500758190538e-08 9.5670376895980013e-09 -2.3437598744400018e-08 -3.559628405961727e-08 -2.6885239463274912e-08 -1.6480347140608156e-09 -4.9928918373480381e-10 -3.738474530612379e-08 -2.203703878637479e-08 1.2804200849814151e-08 3.3733078104910179e-08 -2.5533910685826557e-08 6.018797200741097e-08
leaf_weight=35 20 23 23 28 36 37 30 25 20 27 24 28 23 20 25 23 23 30 21 29 22 20 36 25 24 32 21
leaf_count=35 20 23 23 28 36 37 30 25 20 27 24 28 23 20 25 23 23 30 21 29 22 20 36 25 24 32 21
internal_value=0 1.31126e-08 8.4113e-09 -5.98798e-09 -4.5707e-08 1.86796e-08 3.42381e-08 2.08691e-08 8.03835e-09 3.82871e-08 -1.53761e-08 -8.30924e-09 -3.29109e-09 4.26425e-08 2.04376e-08 3.02379e-08 -2.55154e-08 -2.16827e-08 -1.34335e-08 -1.12857e-08 -1.35374e-08 -1.62954e-08 -1.12742e-08 -3.20201e-09 2.60505e-08 -3.04028e-08 5.63454e-08
internal_weight=0 394 332 154 59 95 67 178 112 62 336 198 170 66 71 48 138 114 41 52 126 104 84 48 44 62 41
internal_count=730 394 332 154 59 95 67 178 112 62 336 198 170 66 71 48 138 114 41 52 126 104 84 48 44 62 41
is_linear=0
shrinkage=0.1


Tree=27
num_leaves=26
num_cat=0
split_feature=2 5 5 0 3 4 4 5 5 2 5 0 4 0 0 0 5 0 0 5 5 0 5 5 0
split_gain=1.19218e-11 4.37519e-12 4.84402e-12 7.39657e-12 5.18553e-12 5.84285e-12 3.95618e-11 4.51597e-12 1.95917e-12 1.9501e-12 3.27932e-12 5.73964e-12 1.84416e-12 1.64997e-12 1.58745e-12 2.28288e-12 1.55823e-12 9.35022e-13 4.60882e-13 4.36589e-13 3.33468e-13 1.39257e-12 3.28529e-13 2.01695e-13 1.29295e-13
threshold=19.000000000000004 0.027900000000000005 0.020700000000000003 5.5000000000000009 25.000000000000004 2.5000000000000004 3.5000000000000004 0.022500000000000003 0.022300000000000004 22.500000000000004 0.020500000000000004 5.5000000000000009 2.5000000000000004 2.5000000000000004 1.5000000000000002 3.5000000000000004 0.023300000000000005 3.5000000000000004 6.5000000000000009 0.024700000000000003 0.026100000000000002 1.5000000000000002 0.025900000000000003 0.024300000000000006 1.0000000180025095e-35
decision_type=2 2 2 2 2 2 2 2 2 2 2 2 2 2 2 2 2 2 2 2 2 2 2 2 2
left_child=1 2 13 4 12 8 -7 -8 -6 10 -2 16 22 -1 23 -16 -12 24 -19 -20 21 -18 -4 -9 -11
right_child=9 -3 3 -5 5 6 7 14 -10 17 11 -13 -14 -15 15 -17 20 18 19 -21 -22 -23 -24 -25 -26
leaf_value=1.8611723577742644e-08 -3.5742861595956715e-08 5.4123994144477007e-08 -9.8984479618160385e-09 -4.1703371828072381e-08 3.0073945662775165e-08 -1.12828515442664e-07 6.2556122504275891e-08 -2.654496220716716e-09 7.2868778318024864e-08 -5.938882131047086e-09 1.2974217865137561e-08 3.2446835225647721e-08 -3.4185967123789854e-08 4.9819746039680983e-08 4.502405121164165e-08 5.4236374354606676e-09 -3.3517212025767315e-10 -3.7602515638161243e-08 -1.1411058642440964e-08 -3.0245298116016177e-08 -2.4667585169563859e-08 -2.8992752862203966e-08 7.7900959037977133e-09 1.1046786548134109e-08 -1.6318965683532432e-08
leaf_weight=36 34 23 21 32 23 23 31 21 20 21 21 38 28 32 37 24 39 37 20 32 36 30 21 22 28
leaf_count=36 34 23 21 32 23 23 31 21 20 21 21 38 28 32 37 24 39 37 20 32 36 30 21 22 28
internal_value=0 1.18013e-08 9.17754e-09 3.7644e-09 9.13328e-09 1.72965e-08 8.40206e-09 2.90562e-08 4.99785e-08 -1.38384e-08 -7.47831e-09 -1.61859e-09 -1.43069e-08 3.32979e-08 1.90706e-08 2.94436e-08 -1.18923e-08 -2.29639e-08 -2.90715e-08 -2.30014e-08 -1.68656e-08 -1.2795e-08 -1.05418e-09 4.35546e-09 -1.18704e-08
internal_weight=0 394 371 303 271 201 158 135 43 336 198 164 70 68 104 61 126 138 89 52 105 69 42 43 49
internal_count=730 394 371 303 271 201 158 135 43 336 198 164 70 68 104 61 126 138 89 52 105 69 42 43 49
is_linear=0
shrinkage=0.1


Tree=28
num_leaves=28
num_cat=0
split_feature=2 5 5 0 3 0 0 5 0 5 2 2 5 5 4 4 4 0 0 5 0 5 5 0 5 5 5
split_gain=9.65663e-12 3.5439e-12 3.92366e-12 5.99122e-12 4.20028e-12 5.49637e-12 1.74392e-11 2.11647e-12 2.03609e-12 7.86243e-12 3.07858e-12 2.03783e-12 4.365e-12 1.54413e-12 1.49377e-12 1.47834e-12 1.4495e-12 1.13067e-12 7.01932e-13 4.83371e-13 3.52358e-13 2.84163e-13 2.66108e-13 1.48353e-13 4.9157e-13 2.42431e-13 1.11295e-13
threshold=19.000000000000004 0.027900000000000005 0.020700000000000003 5.5000000000000009 25.000000000000004 3.5000000000000004 2.5000000000000004 0.023900000000000005 6.5000000000000009 0.024100000000000003 22.500000000000004 22.500000000000004 0.022900000000000004 0.019900000000000004 2.5000000000000004 6.5000000000000009 2.5000000000000004 3.5000000000000004 1.0000000180025095e-35 0.026300000000000004 1.5000000000000002 0.024700000000000003 0.025900000000000003 3.5000000000000004 0.025300000000000003 0.024300000000000006 0.020300000000000002
decision_type=2 2 2 2 2 2 2 2 2 2 2 2 2 2 2 2 2 2 2 2 2 2 2 2 2 2 2
left_child=1 2 13 4 14 6 15 -7 11 -10 -11 12 20 -1 22 16 -6 26 -17 23 -2 -18 -4 24 25 -14 -13
right_child=8 -3 3 -5 5 7 -8 -9 9 10 -12 17 19 -15 -16 18 21 -19 -20 -21 -22 -23 -24 -25 -26 -27 -28
leaf_value=1.6973716253614723e-08 1.5556013227557841e-08 4.8711593861931448e-08 -8.9086032011615715e-09 -3.7533034691339398e-08 1.3775959914141823e-08 7.0602729893565202e-08 -5.7864598306189169e-08 2.6958468936300051e-08 -8.0679157294927255e-08 2.2588894564380879e-08 -2.4901876813579259e-08 -1.6422146061900734e-08 -1.3864422825804468e-08 4.7443226009871245e-08 -3.0767369553684277e-08 2.4999700024405262e-08 5.0872923594624812e-08 -3.3842263204410366e-08 1.162116832140181e-09 -1.0377367801674062e-09 3.3528080719176977e-08 3.5289923274526494e-08 7.0110862998837945e-09 -2.2375234545602921e-08 -2.4828058519255553e-08 3.6151560730509095e-10 -6.7255133263321621e-09
leaf_weight=39 20 23 21 32 25 20 33 25 20 21 39 20 25 29 28 21 25 37 30 34 24 22 21 21 23 23 29
leaf_count=39 20 23 21 32 25 20 33 25 20 21 39 20 25 29 28 21 25 37 30 34 24 22 21 21 23 23 29
internal_value=0 1.06212e-08 8.25978e-09 3.38796e-09 8.21996e-09 1.55669e-08 6.68542e-09 4.63559e-08 -1.24546e-08 -2.63799e-08 -8.28011e-09 -8.10295e-09 -1.75712e-09 2.99681e-08 -1.28762e-08 2.40037e-08 3.32306e-08 -2.06471e-08 1.09776e-08 -1.12262e-08 2.5359e-08 4.35788e-08 -9.48758e-10 -1.49915e-08 -1.28076e-08 -7.04783e-09 -1.06833e-08
internal_weight=0 394 371 303 271 201 156 45 336 80 60 256 170 68 70 123 72 86 51 126 44 47 42 92 71 48 49
internal_count=730 394 371 303 271 201 156 45 336 80 60 256 170 68 70 123 72 86 51 126 44 47 42 92 71 48 49
is_linear=0
shrinkage=0.1


Tree=29
num_leaves=28
num_cat=0
split_feature=2 0 5 5 4 0 0 3 4 0 0 0 5 2 2 5 4 5 5 0 0 5 5 5 4 0 5
split_gain=7.82187e-12 2.98489e-12 3.44113e-12 5.45426e-12 9.55989e-12 1.35112e-11 6.50707e-12 8.53911e-12 4.54004e-12 3.16446e-12 2.82103e-12 1.64923e-12 6.36857e-12 2.49365e-12 1.65064e-12 3.53565e-12 1.05126e-12 8.64436e-13 5.72847e-13 5.10263e-13 5.03508e-13 2.98712e-12 2.11979e-12 4.99281e-13 7.23151e-13 2.8541e-13 1.30675e-13
threshold=19.000000000000004 1.0000000180025095e-35 0.020500000000000004 0.024300000000000006 2.5000000000000004 2.5000000000000004 3.5000000000000004 35.000000000000007 3.5000000000000004 1.5000000000000002 2.5000000000000004 6.5000000000000009 0.024100000000000003 22.500000000000004 22.500000000000004 0.022900000000000004 4.5000000000000009 0.026100000000000002 0.022300000000000004 4.5000000000000009 1.5000000000000002 0.025300000000000003 0.026100000000000002 0.024900000000000002 3.5000000000000004 1.5000000000000002 0.024500000000000004
decision_type=2 2 2 2 2 2 2 2 2 2 2 2 2 2 2 2 2 2 2 2 2 2 2 2 2 2 2
left_child=1 23 10 4 -4 -6 8 -8 17 -10 -3 14 -13 -14 15 25 -16 -5 -18 -7 22 -22 26 24 -1 -2 -17
right_child=11 2 3 6 5 19 7 -9 9 -11 -12 12 13 -15 16 20 18 -19 -20 -21 21 -23 -24 -25 -26 -27 -28
leaf_value=8.7443973839640431e-09 1.4000411985293227e-08 1.160750375817088e-09 3.2097433333433403e-08 -1.3462411834197498e-08 1.575650878758145e-08 -7.7822275827765276e-08 6.3667583674289734e-09 8.0761719978283963e-08 -8.5740377985216744e-09 3.7751011074208899e-08 4.997967625817474e-08 -7.2611238834952025e-08 2.0330005040272055e-08 -2.2411688942287793e-08 -3.6352662380334522e-08 -8.6587112946290292e-09 -3.2610075960194863e-09 -4.2511587917628976e-08 -2.2647507809854994e-08 -5.7354375422160674e-08 -2.8716766677415145e-08 1.6605225605984577e-08 -3.9844481936057718e-08 4.2021199440078764e-08 3.3832418874676816e-08 3.017527268056597e-08 2.3935475591878974e-09
leaf_weight=20 20 20 31 20 34 21 36 27 29 30 29 20 21 39 24 20 35 21 27 29 26 33 24 20 27 24 23
leaf_count=20 20 20 31 20 34 21 36 27 29 30 29 20 21 39 24 20 35 21 27 29 26 33 24 20 27 24 23
internal_value=0 9.55906e-09 5.61922e-09 1.31244e-09 -1.53635e-08 -3.28788e-08 1.30777e-08 3.82503e-08 -2.78108e-09 1.49811e-08 3.00536e-08 -1.12091e-08 -2.37419e-08 -7.4521e-09 -7.29266e-09 -1.58141e-09 -1.85823e-08 -2.83413e-08 -1.17035e-08 -6.59509e-08 -1.01036e-08 -3.36718e-09 -1.60357e-08 2.87879e-08 2.31567e-08 2.28231e-08 -2.74704e-09
internal_weight=0 394 327 278 115 84 163 63 100 59 49 336 80 60 256 170 86 41 62 50 126 59 67 67 47 44 43
internal_count=730 394 327 278 115 84 163 63 100 59 49 336 80 60 256 170 86 41 62 50 126 59 67 67 47 44 43
is_linear=0
shrinkage=0.1


Tree=30
num_leaves=25
num_cat=0
split_feature=2 5 3 4 4 0 5 5 0 0 0 0 0 0 5 4 5 2 5 5 5 5 4 5
split_gain=6.33571e-12 2.73884e-12 2.76125e-12 3.60011e-12 9.02178e-12 4.33619e-12 3.14634e-12 1.96171e-12 4.71896e-12 1.81554e-12 1.35954e-12 2.48698e-12 1.33588e-12 5.46666e-12 1.90496e-11 1.35493e-12 2.6015e-12 2.86482e-12 2.30893e-12 1.30697e-12 5.84517e-13 5.28073e-13 1.80046e-12 4.77289e-14
threshold=19.000000000000004 0.027900000000000005 25.000000000000004 2.5000000000000004 3.5000000000000004 5.5000000000000009 0.022300000000000004 0.023100000000000002 2.5000000000000004 3.5000000000000004 3.5000000000000004 1.5000000000000002 6.5000000000000009 7.5000000000000009 0.024700000000000003 4.5000000000000009 0.022900000000000004 22.500000000000004 0.025300000000000003 0.026500000000000003 0.026300000000000004 0.025500000000000005 5.5000000000000009 0.022100000000000005
decision_type=2 2 2 2 2 2 2 2 2 2 2 2 2 2 2 2 2 2 2 2 2 2 2 2
left_child=1 2 19 6 -5 7 9 8 -6 -4 11 -9 15 14 -14 18 17 -17 23 -1 21 22 -18 -2
right_child=12 -3 3 4 5 -7 -8 10 -10 -11 -12 -13 13 -15 -16 16 20 -19 -20 -21 -22 -23 -24 -25
leaf_value=-2.4641564245876505e-08 -3.5530424042531566e-08 4.2088788771118982e-08 3.1129809552932815e-08 -4.3276321847816965e-08 1.4364684413070706e-08 -1.8463889538288134e-08 6.3214084864426927e-08 3.008044386675872e-10 7.3856020295082207e-08 -4.6480089651531076e-09 -1.1412935375601375e-08 3.8137945168083279e-08 -1.1716455632526656e-07 8.2729902674470524e-09 1.3772837867409572e-08 3.5126665998141961e-08 1.129072473495605e-08 -5.2444491866064046e-09 5.2039932260874792e-09 2.697994996042292e-09 -8.3175226829447344e-10 -2.9365714643797054e-08 -2.5216943870175007e-08 -2.8936506422740295e-08
leaf_weight=36 23 23 37 34 40 36 20 38 20 23 21 32 20 35 25 32 22 39 26 34 36 22 35 21
leaf_count=36 23 23 37 34 40 36 20 38 20 23 21 32 20 35 25 32 22 39 26 34 36 22 35 21
internal_value=0 8.60316e-09 6.52723e-09 1.06876e-08 4.10763e-09 1.27229e-08 2.88648e-08 2.01582e-08 3.41951e-08 1.7415e-08 1.0903e-08 1.75978e-08 -1.00882e-08 -2.13677e-08 -4.44216e-08 -6.56339e-09 -2.10036e-09 1.2951e-08 -1.84223e-08 -1.13623e-08 -1.13929e-08 -1.62056e-08 -1.11263e-08 -3.23833e-08
internal_weight=0 394 371 301 221 187 80 151 60 60 91 70 336 80 45 256 186 71 70 70 115 79 57 44
internal_count=730 394 371 301 221 187 80 151 60 60 91 70 336 80 45 256 186 71 70 70 115 79 57 44
is_linear=0
shrinkage=0.1


Tree=31
num_leaves=28
num_cat=0
split_feature=5 2 5 4 5 0 0 3 4 3 4 4 3 5 5 3 2 3 5 4 0 0 0 0 0 5 5
split_gain=5.96548e-12 4.47309e-12 4.33873e-12 4.24005e-12 3.89839e-12 9.034e-12 4.12947e-12 6.82336e-12 4.04125e-12 6.09344e-12 3.27428e-12 1.06194e-11 2.52476e-12 2.20839e-12 3.30308e-12 2.02246e-12 1.76111e-12 4.6745e-12 2.09949e-12 1.65071e-12 9.12408e-13 7.05523e-13 1.06334e-12 5.71667e-13 7.83159e-13 3.96315e-13 2.55905e-13
threshold=0.018500000000000003 19.000000000000004 0.020500000000000004 2.5000000000000004 0.024300000000000006 2.5000000000000004 3.5000000000000004 35.000000000000007 1.5000000000000002 35.000000000000007 7.5000000000000009 3.5000000000000004 25.000000000000004 0.019300000000000001 0.020500000000000004 35.000000000000007 22.500000000000004 35.000000000000007 0.024300000000000006 2.5000000000000004 1.5000000000000002 1.0000000180025095e-35 3.5000000000000004 3.5000000000000004 6.5000000000000009 0.025300000000000003 0.025700000000000004
decision_type=2 2 2 2 2 2 2 2 2 2 2 2 2 2 2 2 2 2 2 2 2 2 2 2 2 2 2
left_child=-1 2 3 -2 5 15 8 -8 -6 12 11 -7 -10 -3 -15 -4 17 18 -16 -17 -14 -20 -23 -18 -25 -26 -24
right_child=1 13 4 -5 6 10 7 -9 9 -11 -12 -13 20 14 16 19 23 -19 21 -21 -22 22 26 24 25 -27 -28
leaf_value=-4.9029560592976176e-08 9.9101909703614606e-09 2.0232675525101564e-08 -1.1123182683920029e-08 6.5261575130648452e-08 3.2380865445499504e-08 -6.2530263551689836e-08 6.3585519615037988e-09 7.2860792730853901e-08 -1.9506314399479932e-08 -5.2097305522720398e-08 -6.8855542565415824e-08 3.4393010484023993e-08 6.662464761704583e-09 -4.2316136279157188e-08 -3.7302135424965858e-08 3.923122727688234e-09 -3.9870000395198379e-09 3.0395305549983479e-08 -1.9624919086628064e-08 3.9077417517538623e-08 3.514807766188834e-08 1.2875002078716628e-08 -1.8199967213305968e-08 -3.5180944212543666e-08 -3.3336365400953094e-09 -2.180389721764606e-08 -2.7333612474871702e-09
leaf_weight=24 31 27 21 25 35 26 36 27 23 23 20 20 22 28 22 22 26 39 21 34 23 39 20 26 21 26 23
leaf_count=24 31 27 21 25 35 26 36 27 23 23 20 20 22 28 22 22 26 39 21 34 23 39 20 26 21 26 23
internal_value=0 1.66673e-09 8.8728e-09 3.46206e-08 4.5298e-09 -7.92786e-09 1.39554e-08 3.48595e-08 3.50339e-09 -7.60333e-09 -3.50763e-08 -2.03897e-08 7.4461e-09 -7.12559e-09 -9.66399e-09 1.53423e-08 -6.18772e-09 1.70153e-10 -9.26009e-09 2.52668e-08 2.12218e-08 -3.27053e-09 9.17786e-10 -1.67199e-08 -2.1255e-08 -1.35512e-08 -9.92713e-09
internal_weight=0 706 388 56 332 143 189 63 126 91 66 46 68 318 291 77 263 164 125 56 45 103 82 99 73 47 43
internal_count=730 706 388 56 332 143 189 63 126 91 66 46 68 318 291 77 263 164 125 56 45 103 82 99 73 47 43
is_linear=0
shrinkage=0.1


Tree=32
num_leaves=27
num_cat=0
split_feature=5 2 5 4 5 0 3 4 4 5 0 3 4 5 5 4 5 5 3 3 5 4 5 5 5 4
split_gain=4.83204e-12 3.6232e-12 3.51437e-12 3.43444e-12 3.43372e-12 6.78422e-12 3.67706e-12 2.80429e-12 1.31748e-11 5.50907e-12 4.10252e-12 2.84788e-12 2.68597e-12 1.78879e-12 2.67549e-12 1.5169e-12 3.98854e-12 3.1257e-12 1.26957e-12 6.99381e-13 2.56945e-12 1.3169e-12 1.16967e-12 2.92061e-13 1.95749e-13 1.15683e-13
threshold=0.018500000000000003 19.000000000000004 0.020500000000000004 2.5000000000000004 0.026900000000000004 5.5000000000000009 35.000000000000007 3.5000000000000004 2.5000000000000004 0.024900000000000002 2.5000000000000004 35.000000000000007 6.5000000000000009 0.019300000000000001 0.020500000000000004 4.5000000000000009 0.022500000000000003 0.025300000000000003 35.000000000000007 35.000000000000007 0.024900000000000002 5.5000000000000009 0.025300000000000003 0.026300000000000004 0.021900000000000003 6.5000000000000009
decision_type=2 2 2 2 2 2 2 2 2 2 2 2 2 2 2 2 2 2 2 2 2 2 2 2 2 2
left_child=-1 2 3 -2 5 7 12 8 11 10 18 -4 -6 -3 -15 17 -17 -16 -9 21 -21 -18 -23 -24 -13 -11
right_child=1 13 4 -5 6 -7 -8 9 -10 25 -12 24 -14 14 15 16 19 -19 -20 20 -22 22 23 -25 -26 -27
leaf_value=-4.4126604274256452e-08 8.9191721649916458e-09 1.8209408308783388e-08 -6.2913077414350489e-09 5.8735419621314119e-08 3.0684063041519493e-08 -4.6606042243881572e-08 6.0365162894981951e-08 -1.7764223195612265e-09 -6.3603135037245313e-08 -8.9239209311031696e-09 5.9593318013639876e-08 3.9625625347650131e-08 -1.8482738397551658e-08 -3.8084523281501206e-08 -4.369364163249258e-08 4.0758180457345366e-08 5.9040090987545165e-09 4.4572996404923515e-09 2.7599731830440349e-08 2.50186274213566e-08 -1.5371894225414532e-08 -3.1246815441120041e-08 -1.209606423913101e-09 -1.5844428681077716e-08 2.5802171963039741e-08 -1.9221637651926453e-08
leaf_weight=24 31 27 35 25 25 29 20 28 30 20 29 20 20 28 28 20 35 26 31 28 36 35 30 25 21 24
leaf_count=24 31 27 35 25 25 29 20 28 30 20 29 20 20 28 28 20 35 26 31 28 36 35 30 25 21 24
internal_value=0 1.50005e-09 7.98552e-09 3.11586e-08 4.07682e-09 -9.40998e-10 2.46885e-08 4.62323e-09 -7.48992e-09 1.43505e-08 2.87961e-08 1.466e-08 8.83215e-09 -6.41303e-09 -8.69759e-09 -5.56894e-09 -1.70861e-09 -2.05099e-08 1.36585e-08 -6.20245e-09 2.29896e-09 -1.05552e-08 -1.6956e-08 -7.8618e-09 3.25453e-08 -1.45409e-08
internal_weight=0 706 388 56 332 267 65 238 106 132 88 76 45 318 291 263 209 54 59 189 64 125 90 55 41 44
internal_count=730 706 388 56 332 267 65 238 106 132 88 76 45 318 291 263 209 54 59 189 64 125 90 55 41 44
is_linear=0
shrinkage=0.1


Tree=33
num_leaves=27
num_cat=0
split_feature=5 4 0 0 5 4 0 3 5 0 0 2 5 2 0 0 4 4 2 5 0 5 0 5 5 5
split_gain=3.91395e-12 2.99574e-12 3.12187e-12 3.50307e-12 2.83945e-12 6.29951e-12 4.61873e-12 3.82363e-12 3.71496e-12 6.39622e-12 6.36205e-12 1.06771e-11 4.50545e-12 4.22135e-12 4.11489e-12 3.49731e-12 2.32932e-12 1.99641e-12 1.76661e-12 1.51139e-12 1.16125e-12 9.47433e-13 9.43888e-13 2.36569e-13 1.56908e-13 6.32324e-14
threshold=0.018500000000000003 2.5000000000000004 3.5000000000000004 1.5000000000000002 0.020100000000000003 3.5000000000000004 3.5000000000000004 25.000000000000004 0.026300000000000004 5.5000000000000009 7.5000000000000009 22.500000000000004 0.025100000000000004 22.500000000000004 2.5000000000000004 2.5000000000000004 5.5000000000000009 5.5000000000000009 19.000000000000004 0.025300000000000003 1.0000000180025095e-35 0.025300000000000003 1.5000000000000002 0.026300000000000004 0.024100000000000003 0.026500000000000003
decision_type=2 2 2 2 2 2 2 2 2 2 2 2 2 2 2 2 2 2 2 2 2 2 2 2 2 2
left_child=-1 2 3 -2 6 -6 -3 16 9 12 11 -11 13 14 17 -10 19 22 -18 -7 -19 -20 -9 -23 -5 -21
right_child=1 4 -4 24 5 7 -8 8 15 10 -12 -13 -14 -15 -16 -17 18 20 21 25 -22 23 -24 -25 -26 -27
leaf_value=-3.971394268257693e-08 5.6710078997440769e-09 -6.0668927982409181e-09 -7.3801774719984863e-09 5.3874472172310564e-08 -4.3149923073234447e-08 -1.5167338740518234e-08 4.9702795930002183e-08 1.5616924287087387e-08 -7.9616761388807019e-10 -9.7354505709548983e-08 1.9598259770603478e-08 2.3326057614559392e-09 -2.8249955708048446e-08 -2.1549618393438646e-08 5.6525919234218239e-08 4.6800727887249369e-08 -4.7471172457508578e-08 1.6722835791682657e-08 -2.8122133772155524e-08 1.7547716657517754e-08 -1.5605575066857112e-08 -1.0886462102159082e-09 4.329620669233067e-08 -1.4259986203191133e-08 4.1498200727592881e-08 9.9343703855817973e-09
leaf_weight=24 39 33 39 20 38 32 27 28 26 22 20 21 26 24 30 38 21 20 35 20 25 30 22 25 21 24
leaf_count=24 39 33 39 20 38 32 27 28 26 22 20 21 26 24 30 38 21 20 35 20 25 30 22 25 21 24
internal_value=0 1.35005e-09 1.58176e-08 2.71265e-08 -1.58289e-09 -3.92965e-09 1.90295e-08 -8.81861e-10 6.0764e-09 3.24985e-10 -2.69976e-08 -4.86701e-08 1.01611e-08 1.68637e-08 2.42391e-08 2.74645e-08 -1.21193e-08 1.40432e-08 -2.13543e-08 1.36874e-09 -1.23739e-09 -1.52604e-08 2.77958e-08 -7.07562e-09 4.75354e-08 1.3395e-08
internal_weight=0 706 119 80 587 527 60 489 302 238 63 43 175 149 125 64 187 95 111 76 45 90 50 55 41 44
internal_count=730 706 119 80 587 527 60 489 302 238 63 43 175 149 125 64 187 95 111 76 45 90 50 55 41 44
is_linear=0
shrinkage=0.1


Tree=34
num_leaves=28
num_cat=0
split_feature=2 0 0 4 0 4 4 4 5 4 5 5 5 0 5 2 5 2 3 4 5 5 5 4 5 5 4
split_gain=3.26203e-12 2.34274e-12 2.58345e-12 2.38663e-12 3.22257e-12 1.32129e-11 8.22221e-12 2.72105e-11 6.08116e-12 5.29786e-12 4.48949e-12 2.61364e-12 2.08433e-12 1.23037e-12 4.42134e-12 1.93405e-12 1.58884e-12 1.34352e-12 1.07862e-12 7.92803e-13 2.50992e-12 8.91049e-13 6.56961e-13 5.08284e-13 3.59226e-13 1.27871e-12 1.06879e-12
threshold=19.000000000000004 6.5000000000000009 1.0000000180025095e-35 1.0000000180025095e-35 3.5000000000000004 3.5000000000000004 3.5000000000000004 2.5000000000000004 0.023900000000000005 6.5000000000000009 0.026300000000000004 0.024900000000000002 0.023700000000000002 6.5000000000000009 0.024100000000000003 22.500000000000004 0.020500000000000004 22.500000000000004 35.000000000000007 4.5000000000000009 0.024700000000000003 0.022900000000000004 0.024900000000000002 3.5000000000000004 0.026500000000000003 0.025700000000000004 5.5000000000000009
decision_type=2 2 2 2 2 2 2 2 2 2 2 2 2 2 2 2 2 2 2 2 2 2 2 2 2 2 2
left_child=1 2 22 -4 6 -6 7 18 -7 11 -10 -8 -11 16 -15 -16 17 -2 -5 20 -18 -21 23 -1 25 26 -23
right_child=13 -3 3 4 5 8 9 -9 10 12 -12 -13 -14 14 15 -17 19 -19 -20 21 -22 24 -24 -25 -26 -27 -28
leaf_value=3.5358722527689681e-09 2.5745124867220402e-08 3.7881491510798945e-08 2.8214975790673082e-08 -5.3022901286545852e-09 6.1367266762804979e-08 2.9495156965708706e-08 6.1034148242100634e-08 -1.1362803693515389e-07 -7.0057240178368291e-08 -3.1915711291903624e-08 -3.8560658052744231e-09 1.1605596259856988e-08 4.6261185008848476e-09 -5.8782198602003177e-08 1.9976270271811139e-08 -1.7665305605782887e-08 -4.6749604276641322e-08 -3.553967499377276e-09 2.5439845906305439e-08 1.3163991030573641e-08 -2.1046529643259045e-09 1.2311916582537682e-08 3.7258066605261319e-08 2.4569065182333818e-08 1.1803318637894044e-09 -3.27852378811415e-08 -1.4509306401358859e-08
leaf_weight=20 29 22 28 21 35 20 20 28 21 27 20 23 37 20 21 39 20 34 25 24 34 24 20 27 31 21 39
leaf_count=20 29 22 28 21 35 20 20 28 21 27 20 23 37 20 21 39 20 34 25 24 34 24 20 27 31 21 39
internal_value=0 6.17311e-09 4.29789e-09 3.92034e-10 -2.42039e-09 1.23899e-08 -1.02756e-08 -3.59046e-08 -1.57118e-08 7.4491e-09 -3.7764e-08 3.45956e-08 -1.079e-08 -7.23871e-09 -1.80636e-08 -4.49075e-09 -3.85593e-09 9.93292e-09 1.14054e-08 -8.35695e-09 -1.86398e-08 -4.36216e-09 2.20783e-08 1.56188e-08 -8.0198e-09 -1.14151e-08 -4.2917e-09
internal_weight=0 394 372 305 277 96 181 74 61 107 41 43 64 336 80 60 256 63 46 193 54 139 67 47 115 84 63
internal_count=730 394 372 305 277 96 181 74 61 107 41 43 64 336 80 60 256 63 46 193 54 139 67 47 115 84 63
is_linear=0
shrinkage=0.1


Tree=35
num_leaves=25
num_cat=0
split_feature=5 2 5 5 0 0 3 4 3 5 0 4 3 4 5 5 2 0 5 3 0 0 0 5
split_gain=3.2498e-12 2.38125e-12 2.33601e-12 4.91585e-12 5.87599e-12 3.55593e-12 6.23789e-12 2.12228e-12 4.05972e-12 2.06766e-12 1.78084e-12 1.76042e-12 1.46623e-12 1.61893e-12 1.09423e-12 2.37969e-12 1.34253e-12 4.16898e-12 7.26286e-13 2.73285e-12 1.09441e-12 4.31421e-13 6.18345e-13 3.47616e-13
threshold=0.018500000000000003 19.000000000000004 0.020700000000000003 0.024300000000000006 2.5000000000000004 3.5000000000000004 35.000000000000007 1.5000000000000002 35.000000000000007 0.022500000000000003 3.5000000000000004 6.5000000000000009 35.000000000000007 2.5000000000000004 0.019300000000000001 0.020500000000000004 22.500000000000004 5.5000000000000009 0.026100000000000002 35.000000000000007 1.5000000000000002 3.5000000000000004 6.5000000000000009 0.025300000000000003
decision_type=2 2 2 2 2 2 2 2 2 2 2 2 2 2 2 2 2 2 2 2 2 2 2 2
left_child=-1 2 10 4 12 7 -7 -5 11 -6 -2 -9 -4 -14 -3 -16 17 18 19 20 -17 -18 -23 -24
right_child=1 14 3 5 9 6 -8 8 -10 -11 -12 -13 13 -15 15 16 21 -19 -20 -21 -22 22 23 -25
leaf_value=-3.6187916648463178e-08 9.3947656815933972e-09 1.4072845422319348e-08 -1.4572427879204023e-08 2.4786672290539564e-08 -1.2152995539830378e-08 5.7063492361897345e-09 6.9291539123778676e-08 2.2822681104743597e-08 -4.050651623204075e-08 -4.8950856581399961e-08 4.3576356692601285e-08 -9.4831068188047937e-09 -4.0963127274034667e-09 3.1373597035365009e-08 -3.4686544102070982e-08 -2.5502556422196675e-09 -2.1554875081401057e-09 3.0562653960835833e-08 -1.9230186322339983e-08 2.647290233415145e-08 -2.8904171015616737e-08 -2.9530657642508661e-08 -7.4194156427086538e-10 -1.8040212153185127e-08
leaf_weight=24 35 27 21 35 26 36 27 37 23 37 27 31 22 31 28 40 26 38 36 24 26 26 21 26
leaf_count=24 35 27 21 35 26 36 27 37 23 37 27 31 22 31 28 40 26 38 36 24 26 26 21 26
internal_value=0 1.23018e-09 6.48791e-09 3.10408e-09 -1.13191e-08 1.3559e-08 3.29571e-08 3.85989e-09 -4.18887e-09 -3.37644e-08 2.42803e-08 8.09504e-09 7.78975e-09 1.66502e-08 -5.1849e-09 -6.9717e-09 -4.02107e-09 1.53003e-09 -7.22584e-09 -2.4241e-09 -1.29321e-08 -1.32168e-08 -1.71565e-08 -1.03112e-08
internal_weight=0 706 388 326 137 189 63 126 91 63 62 68 74 53 318 291 263 164 126 90 66 99 73 47
internal_count=730 706 388 326 137 189 63 126 91 63 62 68 74 53 318 291 263 164 126 90 66 99 73 47
is_linear=0
shrinkage=0.1


Tree=36
num_leaves=26
num_cat=0
split_feature=5 2 5 5 5 0 0 3 4 0 4 4 0 3 4 5 5 2 0 5 3 0 5 5 0
split_gain=2.63234e-12 1.92881e-12 2.04101e-12 2.37536e-12 2.78674e-12 4.75955e-12 2.75431e-12 4.45705e-12 2.88378e-12 2.71651e-12 2.09559e-12 5.74016e-12 1.44248e-12 1.18765e-12 1.31134e-12 8.86326e-13 1.92755e-12 1.08745e-12 3.37687e-12 5.88292e-13 2.21361e-12 8.86471e-13 3.55194e-13 3.37763e-13 1.90442e-13
threshold=0.018500000000000003 19.000000000000004 0.027900000000000005 0.020700000000000003 0.024300000000000006 2.5000000000000004 3.5000000000000004 35.000000000000007 1.5000000000000002 1.5000000000000002 3.5000000000000004 7.5000000000000009 3.5000000000000004 35.000000000000007 2.5000000000000004 0.019300000000000001 0.020500000000000004 22.500000000000004 5.5000000000000009 0.026100000000000002 35.000000000000007 1.5000000000000002 0.022700000000000001 0.024700000000000003 6.5000000000000009
decision_type=2 2 2 2 2 2 2 2 2 2 2 2 2 2 2 2 2 2 2 2 2 2 2 2 2
left_child=-1 2 3 12 5 13 8 -8 -6 -10 -7 -12 -2 -5 -15 -3 -17 18 19 20 21 -18 -19 -24 -25
right_child=1 15 -4 4 6 10 7 -9 9 -11 11 -13 -14 14 -16 16 17 22 -20 -21 -22 -23 23 24 -26
leaf_value=-3.2569124612062221e-08 8.4552884976092061e-09 1.2665561113480966e-08 3.473190030071603e-08 -1.3115184828107898e-08 2.3571903258059863e-08 -5.4439846169205089e-08 2.8600715074045272e-09 5.8481269718413386e-08 7.3407928357593317e-09 -3.1243886255971631e-08 2.1323743208956361e-08 -5.4440095058616576e-08 3.9218720978603282e-08 -3.6866815216802194e-09 2.8236236696458615e-08 -3.1217888875532753e-08 -2.2952297173972627e-09 -2.3799720034745065e-08 2.7506388184705384e-08 -1.7307167304241805e-08 2.3825612638361805e-08 -2.6013754295971779e-08 1.6435915376175361e-09 -6.4040166023460184e-09 -1.8052614928539684e-08
leaf_weight=24 35 27 23 21 34 23 34 25 37 36 20 20 27 22 31 28 40 20 38 36 24 26 22 25 32
leaf_count=24 35 27 23 21 34 23 34 25 37 36 20 20 27 22 31 28 40 20 38 36 24 26 22 25 32
internal_value=0 1.10717e-09 5.83911e-09 4.01847e-09 3.69314e-10 -1.01872e-08 9.08162e-09 2.64284e-08 -4.83419e-10 -1.16873e-08 -3.0388e-08 -1.65582e-08 2.18523e-08 7.01078e-09 1.49852e-08 -4.66641e-09 -6.27453e-09 -3.61896e-09 1.37703e-09 -6.50325e-09 -2.18169e-09 -1.16389e-08 -1.18951e-08 -8.88133e-09 -1.29436e-08
internal_weight=0 706 388 365 303 137 166 59 107 73 63 40 62 74 53 318 291 263 164 126 90 66 99 79 57
internal_count=730 706 388 365 303 137 166 59 107 73 63 40 62 74 53 318 291 263 164 126 90 66 99 79 57
is_linear=0
shrinkage=0.1


Tree=37
num_leaves=28
num_cat=0
split_feature=5 3 0 0 5 5 4 0 5 4 3 5 2 0 2 0 4 4 0 0 2 5 5 0 5 5 4
split_gain=2.13219e-12 1.8427e-12 5.37806e-12 5.73358e-12 9.11825e-12 4.98947e-12 5.82599e-12 3.29125e-12 3.13321e-12 6.93491e-12 1.26358e-11 5.01098e-12 2.25635e-12 1.46164e-12 1.162e-12 1.45413e-12 6.54228e-12 3.9664e-12 5.48036e-12 3.4672e-12 1.91814e-12 1.11684e-12 1.08868e-12 4.03733e-13 3.96236e-13 2.3272e-13 3.82985e-15
threshold=0.018500000000000003 25.000000000000004 7.5000000000000009 5.5000000000000009 0.025300000000000003 0.025300000000000003 5.5000000000000009 1.5000000000000002 0.025100000000000004 5.5000000000000009 35.000000000000007 0.024500000000000004 19.000000000000004 2.5000000000000004 22.500000000000004 3.5000000000000004 2.5000000000000004 2.5000000000000004 1.5000000000000002 1.0000000180025095e-35 19.000000000000004 0.024700000000000003 0.021300000000000003 1.0000000180025095e-35 0.020300000000000002 0.026300000000000004 6.5000000000000009
decision_type=2 2 2 2 2 2 2 2 2 2 2 2 2 2 2 2 2 2 2 2 2 2 2 2 2 2 2
left_child=-1 5 3 8 -5 7 13 -2 11 10 -10 14 -8 23 15 17 -17 18 -3 -19 22 -9 -21 -7 -16 -14 -24
right_child=1 2 -4 4 -6 6 12 21 9 -11 -12 -13 25 -15 24 16 -18 19 -20 20 -22 -23 26 -25 -26 -27 -28
leaf_value=-2.9312213160418805e-08 -3.7867995307373624e-09 -1.9352432787591378e-09 4.4905204372151922e-08 -5.6960499622268174e-08 2.0800918335339704e-08 2.4258045061564815e-08 -4.3720161628579311e-08 -5.9760793461642292e-08 1.7308909292609223e-08 2.7095912058874939e-08 -8.0363083246634858e-08 5.7342417263002554e-08 7.4967419531427976e-10 4.5287425957477964e-08 2.1317457175146479e-09 -1.3561342115053777e-08 5.5194201662158648e-08 2.1344907339404531e-08 7.0392176034772545e-08 -4.14513471143478e-08 9.7121803044331049e-09 -2.824512335534864e-08 -1.277761976892222e-08 7.9047626666550748e-09 -1.7294217021420387e-08 -1.2314067863172795e-08 -1.4734620037426538e-08
leaf_weight=24 36 22 31 38 25 26 21 23 26 31 27 22 30 21 21 25 31 40 20 22 24 22 20 36 21 25 20
leaf_count=24 36 22 31 38 25 26 21 23 26 31 27 22 30 21 21 25 31 40 20 22 24 22 20 36 21 25 20
internal_value=0 9.96449e-10 4.66283e-09 1.79498e-09 -2.61028e-08 -6.12243e-09 4.16875e-09 -2.63237e-08 6.5196e-09 -1.04738e-08 -3.24485e-08 1.1476e-08 -1.58353e-08 2.24857e-08 7.68255e-09 1.05445e-08 2.44998e-08 5.89275e-09 3.25064e-08 -2.97846e-09 -1.42917e-08 -4.43531e-08 -2.35835e-08 1.47626e-08 -7.58124e-09 -5.18839e-09 -1.37561e-08
internal_weight=0 706 466 435 63 240 159 81 372 84 53 288 76 83 266 224 56 168 42 126 86 45 62 62 42 55 40
internal_count=730 706 466 435 63 240 159 81 372 84 53 288 76 83 266 224 56 168 42 126 86 45 62 62 42 55 40
is_linear=0
shrinkage=0.1


Tree=38
num_leaves=28
num_cat=0
split_feature=5 3 0 0 5 5 4 0 5 5 5 2 5 0 2 0 4 4 0 0 5 5 0 5 5 5 5
split_gain=1.72708e-12 1.49258e-12 4.35623e-12 4.6442e-12 7.47308e-12 4.04147e-12 4.71905e-12 2.66592e-12 2.5379e-12 5.79454e-12 4.0589e-12 1.82764e-12 1.28281e-12 1.18393e-12 9.41222e-13 1.17784e-12 5.29925e-12 3.21278e-12 4.43909e-12 2.80844e-12 1.59953e-12 9.04641e-13 3.96141e-13 3.65655e-13 3.20952e-13 1.88503e-13 1.42616e-14
threshold=0.018500000000000003 25.000000000000004 7.5000000000000009 5.5000000000000009 0.025100000000000004 0.025300000000000003 5.5000000000000009 1.5000000000000002 0.025100000000000004 0.026700000000000005 0.024500000000000004 19.000000000000004 0.027500000000000004 2.5000000000000004 22.500000000000004 3.5000000000000004 2.5000000000000004 2.5000000000000004 1.5000000000000002 1.0000000180025095e-35 0.020900000000000005 0.024700000000000003 1.5000000000000002 0.026300000000000004 0.020300000000000002 0.026300000000000004 0.022900000000000004
decision_type=2 2 2 2 2 2 2 2 2 2 2 2 2 2 2 2 2 2 2 2 2 2 2 2 2 2 2
